
\data\
ngram 1=100038

\1-grams:
-5.677783	!
-3.697023	"
-5.933056	"$100
-5.933056	"'I'm
-5.933056	"(Everything
-5.518083	"),
-5.518083	").
-5.933056	"-tronics"
-5.933056	"1,000
-5.933056	"10
-5.933056	"100
-5.933056	"12
-5.933056	"123!"
-5.933056	"14
-5.933056	"1712"
-5.933056	"18
-5.933056	"1800
-5.933056	"1812"
-5.933056	"187"
-5.933056	"1969"--
-5.933056	"1984"
-5.933056	"20
-5.933056	"20/20."
-5.933056	"2004
-5.933056	"2006
-5.933056	"2007
-5.933056	"21"
-5.933056	"21st-century
-5.933056	"26
-5.933056	"3,000
-5.933056	"3-D
-5.933056	"30
-5.933056	"36
-5.933056	"42d
-5.933056	"48
-5.933056	"51
-5.933056	"80
-5.933056	"90210"
-3.999569	"A
-5.933056	"A.A.C.S.
-5.933056	"ART
-5.933056	"Aalim
-5.933056	"About
-5.933056	"About-Face
-5.677783	"Above
-5.933056	"Absolutely,"
-5.933056	"Academy
-5.933056	"Access
-5.933056	"According
-5.933056	"Activist
-5.933056	"Actually
-5.933056	"Actually,
-5.933056	"Adding
-5.169628	"Afro
-4.94183	"After
-5.933056	"Against
-5.933056	"Agon"),
-5.933056	"Ah
-5.933056	"Ain't
-5.933056	"Air
-5.933056	"Airline
-5.677783	"Al
-5.933056	"Alberto
-5.933056	"Alex,
-5.933056	"Alexandre
-5.933056	"Alf
-5.933056	"Alice
-4.31188	"All
-5.933056	"All-Stars,"
-5.933056	"Allah."
-5.933056	"Ally
-5.518083	"Almost
-5.933056	"Also
-5.933056	"Also,
-5.677783	"Altar
-5.933056	"Alternadad"
-5.677783	"Alternadad,"
-5.677783	"Although
-5.933056	"Altocomulus
-5.933056	"Altogether,
-5.518083	"Always
-5.933056	"Amahl
-5.933056	"Amazing
-5.933056	"Amazona"
-5.677783	"America
-5.234086	"America's
-4.627705	"American
-5.933056	"Americana
-5.933056	"Amid
-4.94183	"An
-5.933056	"Analysis
-4.094207	"And
-5.933056	"Andrew
-5.933056	"Andy
-5.933056	"Angel
