
\data\
ngram 1=100038

\1-grams:
-5.677783	!
-3.697023	"
-5.933056	"$100
-5.933056	"'I'm
-5.933056	"(Everything
-5.518083	"),
-5.518083	").
-5.933056	"-tronics"
-5.933056	"1,000
-5.933056	"10
-5.933056	"100
-5.933056	"12
-5.933056	"123!"
-5.933056	"14
-5.933056	"1712"
-5.933056	"18
-5.933056	"1800
-5.933056	"1812"
-5.933056	"187"
-5.933056	"1969"--
-5.933056	"1984"
-5.933056	"20
-5.933056	"20/20."
-5.933056	"2004
-5.933056	"2006
-5.933056	"2007
-5.933056	"21"
-5.933056	"21st-century
-5.933056	"26
-5.933056	"3,000
-5.933056	"3-D
-5.933056	"30
-5.933056	"36
-5.933056	"42d
-5.933056	"48
-5.933056	"51
-5.933056	"80
-5.933056	"90210"
-3.999569	"A
-5.933056	"A.A.C.S.
-5.933056	"ART
-5.933056	"Aalim
-5.933056	"About
-5.933056	"About-Face
-5.677783	"Above
-5.933056	"Absolutely,"
-5.933056	"Academy
-5.933056	"Access
-5.933056	"According
-5.933056	"Activist
-5.933056	"Actually
-5.933056	"Actually,
-5.933056	"Adding
-5.169628	"Afro
-4.94183	"After
-5.933056	"Against
-5.933056	"Agon"),
-5.933056	"Ah
-5.933056	"Ain't
-5.933056	"Air
-5.933056	"Airline
-5.677783	"Al
-5.933056	"Alberto
-5.933056	"Alex,
-5.933056	"Alexandre
-5.933056	"Alf
-5.933056	"Alice
-4.31188	"All
-5.933056	"All-Stars,"
-5.933056	"Allah."
-5.933056	"Ally
-5.518083	"Almost
-5.933056	"Also
-5.933056	"Also,
-5.677783	"Altar
-5.933056	"Alternadad"
-5.677783	"Alternadad,"
-5.677783	"Although
-5.933056	"Altocomulus
-5.933056	"Altogether,
-5.518083	"Always
-5.933056	"Amahl
-5.933056	"Amazing
-5.933056	"Amazona"
-5.677783	"America
-5.234086	"America's
-4.627705	"American
-5.933056	"Americana
-5.933056	"Amid
-4.94183	"An
-5.933056	"Analysis
-4.094207	"And
-5.933056	"Andrew
-5.933056	"Andy
-5.933056	"Angel
-5.933056	"Angela's
-5.677783	"Animal
-5.933056	"Animals
-5.933056	"Animals,"
-5.518083	"Annie
-5.933056	"Annie"
-5.933056	"Another
-5.933056	"Ant
-5.933056	"Antonio
-5.234086	"Any
-5.401577	"Anybody
-5.933056	"Anyone
-5.933056	"Anyway,"
-5.933056	"Apocalypse
-5.518083	"Apocalypto"
-5.677783	"Apocalypto,"
-5.933056	"Appreciation."
-5.933056	"Apprentice"
-5.933056	"Apprentice:
-5.933056	"Aquamarine"
-5.933056	"Arabian
-5.933056	"Architecturally
-5.933056	"Architecture
-5.169628	"Are
-5.933056	"Aren't
-5.933056	"Argument
-5.933056	"Aristotle
-5.933056	"Arma
-5.933056	"Arms
-5.933056	"Army
-5.933056	"Around,
-5.933056	"Arsenic,
-5.933056	"Arson
-5.677783	"Art
-5.933056	"Arthur
-5.933056	"Arts,
-4.364854	"As
-5.933056	"Asian
-5.933056	"Asian-Americans
-5.677783	"Asians
-5.309807	"Ask
-5.933056	"Aspirational"
-5.933056	"Asted-way
-4.819113	"At
-5.933056	"Athletes
-5.677783	"Atonement"
-5.933056	"Atonement,"
-5.933056	"Attention
-5.933056	"Audi
-5.933056	"Audiences
-5.933056	"August's
-5.933056	"Aunt
-5.933056	"Austin
-5.933056	"Australia's
-5.933056	"Authentic
-5.933056	"Autumn
-5.933056	"Ave
-5.234086	"Avenue
-5.933056	"Awake,
-5.933056	"Axis
-5.933056	"Baath
-5.677783	"Babe,"
-5.234086	"Babel"
-5.933056	"Babel":
-5.169628	"Babel,"
-5.933056	"Baby
-5.933056	"Bachelor"
-5.933056	"Bachiana
-5.401577	"Back
-5.933056	"Backstage,"
-5.933056	"Bad
-5.933056	"Ballroom"
-5.933056	"Bar
-5.933056	"Barber
-5.933056	"Barbiere
-5.933056	"Barbiere"
-5.933056	"Barney"
-5.933056	"Barnyard"
-5.677783	"Based
-5.677783	"Basic
-5.933056	"Basically,
-5.933056	"Basilisk,"
-5.933056	"Bat
-5.677783	"Be
-5.677783	"Beast
-5.933056	"Beastie
-5.401577	"Beastly
-5.933056	"Beautiful
-5.401577	"Beauty
-5.933056	"Beavis
-5.169628	"Because
-5.933056	"Beethoven's
-5.234086	"Before
-5.933056	"Before,
-5.677783	"Behind
-5.933056	"Behold,
-5.063824	"Being
-5.518083	"Believe
-5.677783	"Ben
-5.933056	"Ben-Hur"
-5.933056	"Beneath
-5.933056	"Berdymukhammedov
-5.933056	"Bermuda
-5.401577	"Best
-5.933056	"Betty
-5.518083	"Between
-5.933056	"Bev,
-5.933056	"Beverly
-5.933056	"Beware
-5.518083	"Beyond
-5.677783	"Bhagam
-5.401577	"Big
-5.933056	"Big.
-5.933056	"Bigger
-5.677783	"Bill
-5.933056	"Billie
-5.933056	"Billionaire
-5.933056	"Biloxi
-5.933056	"Binyam
-5.933056	"Biomechanical
-5.933056	"Biped"
-5.933056	"Biped."
-5.677783	"Bird
-5.933056	"Birdy."
-5.677783	"Birth"
-5.933056	"Birth,"
-5.933056	"Birthday
-5.933056	"Bitter
-4.663543	"Black
-5.933056	"Blackbird,"
-5.933056	"Blade
-5.933056	"Blind
-5.933056	"Blindsight,"
-5.169628	"Blood
-5.933056	"Blood"
-5.933056	"Bloodline
-5.677783	"Blue
-5.933056	"Blueberries,"
-5.677783	"Boards
-5.933056	"Bobby,"
-5.933056	"Boho"
-5.933056	"Boise
-5.933056	"Bomb,
-5.933056	"Bonding
-5.933056	"Boogie
-5.677783	"Book
-5.933056	"Booking
-5.677783	"Borat:
-5.933056	"Born
-5.933056	"Bosch!"
-5.933056	"Bosch,
-5.933056	"Boston
-5.309807	"Both
-5.933056	"Boulevard-Riverside
-5.933056	"Boulevard-Riverside",
-5.933056	"Bourne"
-5.933056	"Bovis
-5.933056	"Boys
-5.933056	"Boyz"
-5.933056	"Brain
-5.677783	"Brand
-5.933056	"BrandSimple,"
-5.933056	"Brandusa
-5.933056	"Brave
-5.933056	"Braveheart"
-5.933056	"Break,"
-5.933056	"Breakfast
-5.677783	"Breaking
-5.933056	"Brick
-5.933056	"Brig
-5.518083	"Brightly
-5.933056	"Brigitte
-5.677783	"Bring
-5.933056	"Bringing
-5.933056	"Broadening
-5.677783	"Broadway
-5.677783	"Brokeback
-5.933056	"Brooklyn
-5.933056	"Brooklyn,"
-5.933056	"Brush
-5.933056	"Builders
-5.933056	"Building
-5.933056	"Bullet,"
-5.933056	"Bumping
-5.518083	"Burning
-5.677783	"Bush
-3.841741	"But
-5.518083	"But,
-5.933056	"But,"
-5.933056	"Buy
-5.113512	"By
-5.933056	"C.B.O."
-5.933056	"C.E.O.
-5.933056	"C.E.O."
-5.933056	"C.W.I.C.,
-5.933056	"CHINA
-5.518083	"CSI"
-5.933056	"CSI."
-5.518083	"CSI:
-5.933056	"California
-5.933056	"Call
-5.933056	"Campaign
-5.169628	"Can
-5.677783	"Can't
-5.933056	"Cancellations
-5.933056	"Cantatrice
-5.933056	"Capriccio,"
-5.933056	"Captain
-5.933056	"Captured
-5.933056	"Carl
-5.933056	"Carmen"
-5.933056	"Carousel"
-5.933056	"Carousel,"
-5.518083	"Cars"
-5.933056	"Cars,"
-5.933056	"Cartes
-5.933056	"Casablanca"
-5.933056	"Casey
-5.933056	"Cash-flow
-5.677783	"Casino
-5.933056	"Catch
-5.933056	"Catch-22,"
-5.933056	"Caught
-5.933056	"Cave
-5.933056	"Celebrating
-5.933056	"Celebration
-5.933056	"Celebrity
-5.933056	"Celluloid
-5.933056	"Celtic
-5.933056	"Central
-5.677783	"Certain
-5.933056	"Certainly
-5.933056	"Certainly,
-5.933056	"Certified"
-5.933056	"Certified."
-5.933056	"Chameleon,"
-5.933056	"Chance
-5.933056	"Chandralekha:
-5.677783	"Change
-5.933056	"Chaos
-5.933056	"Character
-5.677783	"Chariots
-5.677783	"Charlotte's
-5.933056	"Checking
-5.933056	"Cheer
-5.933056	"Cheers,"
-5.933056	"Cher
-5.933056	"Cherish
-5.933056	"Chicago
-5.677783	"Chicken
-5.933056	"Child's
-5.933056	"Childhood
-5.933056	"Childhood's
-5.518083	"Children
-5.933056	"Chileans
-5.933056	"China
-5.677783	"Chinatown,"
-5.933056	"Chirac's
-5.933056	"Chocolate
-5.933056	"Christianish."
-5.933056	"Christians
-5.933056	"Christotora
-5.933056	"Chuck
-5.933056	"Chuck,"
-5.933056	"Chuco's
-5.933056	"Church
-5.933056	"Churches
-5.933056	"Cinderella
-5.933056	"Cinema
-5.933056	"Cites
-5.677783	"Citizen
-5.933056	"Citizens
-5.933056	"Citizens'
-5.933056	"Clarity
-5.677783	"Clearly,
-5.933056	"Cleopatra"
-5.933056	"Clients
-5.518083	"Climate
-5.933056	"Clint's
-5.933056	"Coach
-5.933056	"Coach's
-5.933056	"Coaches'
-5.677783	"Code
-5.933056	"Coffee
-5.401577	"Cold
-5.933056	"Collecting
-5.933056	"College
-5.677783	"Color
-5.113512	"Come
-5.933056	"Come,
-5.309807	"Comedy
-5.933056	"Comfort
-5.677783	"Coming
-5.933056	"Communication
-5.933056	"Community
-5.933056	"Compadres,
-5.518083	"Companies
-5.518083	"Company"
-5.677783	"Company,"
-5.933056	"Complacency
-5.933056	"Complaints
-5.933056	"Complete
-5.677783	"Complex
-5.933056	"Concrete
-5.933056	"Confessions
-5.933056	"Congress
-5.933056	"Congressional
-5.933056	"Connected
-5.933056	"Conquering
-5.933056	"Conrad
-5.677783	"Constructing
-5.933056	"Consumer
-5.933056	"Consumers
-5.933056	"Content"
-5.933056	"Context?"
-5.933056	"Continuum,"
-5.933056	"Conversationality
-5.401577	"Conversations
-5.933056	"Cool,"
-5.933056	"Cool."
-5.933056	"Copenhagen"-inspired
-5.933056	"Cops
-5.933056	"Cops"
-5.677783	"Corporate
-5.933056	"Corrosion
-5.933056	"Corwin's
-5.933056	"Cosmetics
-5.677783	"Could
-5.933056	"Courtesy
-5.933056	"Cow
-5.933056	"Cradle
-5.677783	"Crash"
-5.933056	"Crash,"
-5.933056	"Crazed
-5.933056	"Crazy,"
-5.933056	"Creatures
-5.933056	"Crewel
-5.677783	"Crime
-5.933056	"Criminals
-5.933056	"Criss
-5.677783	"Crocodile
-5.933056	"Crossing
-5.933056	"Crossover"
-5.677783	"Crouching
-5.933056	"Crumb"
-5.933056	"Cry,
-5.933056	"Cuatrisimo,"
-5.933056	"Cultural
-5.933056	"Cuomo's
-5.933056	"Curatorial
-5.933056	"Curb
-5.677783	"Curious
-5.933056	"Currently,
-5.933056	"Curtain
-5.933056	"Cut
-5.933056	"Cutting
-5.933056	"CyberOne:
-5.933056	"Cynical
-5.933056	"DISSENT!"
-5.677783	"Da
-5.933056	"Daddy's
-5.933056	"Daddy-doo")
-5.677783	"Dai
-5.933056	"Dai"
-5.677783	"Dai,"
-5.933056	"Dallas
-5.933056	"Dallas,"
-5.933056	"Damascus
-5.933056	"Dames"
-5.677783	"Dance
-5.401577	"Dancing
-5.933056	"Dangerous
-5.933056	"Das
-5.933056	"Dat
-5.933056	"Dateline"
-5.677783	"David
-5.933056	"David's
-5.933056	"David."
-5.933056	"Dawson's
-5.518083	"Day
-5.933056	"Day-oh!
-5.933056	"Days
-5.518083	"De
-5.933056	"De-escalate,
-5.933056	"Dead,"
-5.933056	"Deal
-5.677783	"Dear
-5.933056	"Dearborn,"
-5.309807	"Death
-5.933056	"Decemberunderground,"
-5.677783	"Decisions"
-5.933056	"Decreasing
-5.933056	"Dee"
-5.933056	"Defamation
-5.677783	"Defendant
-5.933056	"Definitely
-5.677783	"Definitely,
-5.933056	"Defying
-5.933056	"Delay
-5.933056	"Deliver
-5.933056	"Demand
-5.933056	"Democracy
-5.933056	"Democratic
-5.518083	"Democrats
-5.933056	"Demoiselles
-5.933056	"Departed"
-5.933056	"Departed."
-5.933056	"Desperate
-5.933056	"Despite
-5.933056	"Desplat
-5.933056	"Destroy
-5.933056	"Detective:
-5.933056	"Detroit
-5.933056	"Devil
-5.933056	"Devious
-5.933056	"Dhoom
-5.933056	"Diabetics
-5.933056	"Diamond,"
-5.933056	"Diana
-5.933056	"Diane
-5.933056	"Dick
-5.933056	"Dictatorship
-5.234086	"Did
-5.933056	"Dido
-5.933056	"Dies
-5.933056	"Digging
-5.933056	"Digiberto
-5.677783	"Dinner
-5.933056	"Dinosaurs,"
-5.933056	"Direct
-5.933056	"Directors
-5.234086	"Dirt"
-5.933056	"Dirt,"
-5.677783	"Dirt."
-5.933056	"Dirty
-5.933056	"Disinformation
-5.677783	"Disturbing
-5.933056	"Divine
-4.793177	"Do
-5.933056	"Doctor
-5.933056	"Doctors
-5.518083	"Does
-5.677783	"Dog
-4.846696	"Don't
-5.933056	"Donald
-5.933056	"Dork
-5.933056	"Dow
-5.933056	"Down,
-5.933056	"Download
-5.677783	"Dr.
-5.933056	"Dracula,"
-5.933056	"Dragon
-5.933056	"Dragonfly"
-5.401577	"Dreamgirls"
-5.933056	"Dreamgirls";
-5.677783	"Dreamgirls,"
-5.401577	"Dreamgirls."
-5.933056	"Dry-goods
-5.677783	"Due
-5.933056	"Duel
-5.309807	"During
-5.933056	"Dynasty"
-5.309807	"Each
-5.677783	"Earl
-5.933056	"Earl,"
-5.933056	"Earle
-5.518083	"Early
-5.677783	"Earnings
-5.933056	"East
-5.677783	"Easy
-5.933056	"Economic
-5.933056	"Edelweiss").
-5.933056	"Edelweiss,"
-5.933056	"Effigy"
-5.933056	"Eight-oh-eight,"
-5.933056	"Einstein
-5.518083	"Either
-5.518083	"El
-5.933056	"Electric
-5.518083	"Elegy
-5.933056	"Eli's
-5.933056	"Eliot's
-5.933056	"Elizabeth
-5.933056	"Ellie"
-5.933056	"Ellsworth,"
-5.933056	"Emancipation
-5.933056	"Emerald,"
-5.933056	"Emerging
-5.933056	"Emeril
-5.933056	"Enable
-5.933056	"Encourage
-5.933056	"Endless
-5.933056	"Energy
-5.933056	"Energy"
-5.933056	"Enigma"
-5.933056	"Enough,"
-5.677783	"Enough."
-5.933056	"Enron
-5.933056	"Entering
-5.933056	"Entertainment
-5.933056	"Environmental
-5.933056	"Eragon."
-5.401577	"Eric
-5.933056	"Eric."
-5.933056	"Erin
-5.933056	"Especially
-5.933056	"Essai
-5.933056	"Essayen
-5.518083	"Eternal
-5.933056	"Ethnic
-5.933056	"Etroits
-5.677783	"Eugene
-4.819113	"Even
-5.933056	"Evergreen"
-4.846696	"Every
-4.90775	"Everybody
-5.933056	"Everyday
-5.933056	"Everyman,"
-5.113512	"Everyone
-5.677783	"Everyone's
-5.933056	"Everyone,"
-5.169628	"Everything
-5.933056	"Evidence,"
-5.933056	"Evil
-5.933056	"Excel
-5.933056	"Exciting
-5.933056	"Execution:
-5.933056	"Expanding
-5.677783	"Experience
-5.933056	"Explore."
-5.933056	"Express
-5.933056	"Expressions
-5.933056	"FEMA
-5.933056	"FRANK'S
-5.933056	"Face-Off"
-5.933056	"Face-Off's"
-5.933056	"Facing
-5.677783	"Factory
-5.933056	"Failure
-5.933056	"Faith
-5.933056	"Falling
-5.933056	"Familia,"
-5.518083	"Family
-5.677783	"Fanfare
-5.933056	"Fantastika,"
-5.933056	"Far
-5.933056	"Farmers
-5.677783	"Fast
-5.933056	"FastWeb
-5.933056	"Fear
-5.933056	"Feared
-5.933056	"Feasts
-5.933056	"Federal
-5.933056	"Feet
-5.677783	"Feminism
-5.933056	"Femme
-5.677783	"Fences"
-5.518083	"Fences,"
-5.933056	"Fences."
-5.933056	"Fenton
-5.933056	"Fermina
-5.933056	"Few
-5.933056	"Feynman
-5.933056	"Fiction
-5.677783	"Fiddler
-5.933056	"Fifteen
-5.933056	"Fifth
-5.401577	"Fight
-5.933056	"Figure(atively)
-5.933056	"Final
-5.677783	"Finally
-5.677783	"Finally,
-5.677783	"Finding
-5.677783	"Finnegans
-5.933056	"Fiorello!"
-5.933056	"Fires
-5.019242	"First
-5.933056	"First,
-5.933056	"Fishermen
-5.401577	"Five
-5.933056	"Flagellation
-5.019242	"Flags
-5.518083	"Flags"
-5.933056	"Flags,"
-5.933056	"Flashbacks
-5.933056	"Flashlight:
-5.933056	"Flat-screen
-5.933056	"Fledermaus,"
-5.677783	"Floodwall,"
-5.933056	"Flowing
-5.933056	"Flushed
-5.401577	"Folk
-5.933056	"Folks,
-5.933056	"Follow
-5.933056	"Folly's
-5.933056	"Food
-5.933056	"Footlight
-4.447334	"For
-5.677783	"Ford
-5.933056	"Foreign
-5.933056	"Forever
-5.933056	"Forget
-5.933056	"Forgotten
-5.933056	"Forsythe
-5.933056	"Foul
-5.933056	"Four/Play,"
-5.933056	"Fragrance
-5.933056	"Frank
-5.933056	"Frankenstein."
-5.518083	"Frankly,
-5.933056	"Freakonomics"
-5.933056	"Freakonomics."
-5.933056	"Freddy
-5.933056	"Frederick"
-5.518083	"Free
-5.019242	"Freedom
-5.677783	"Freehold
-5.933056	"French"
-5.518083	"Fresh
-5.113512	"Friday
-5.933056	"Friends"
-5.933056	"Frigyes
-5.063824	"From
-5.933056	"Fruits
-5.933056	"Fundamentally,
-5.933056	"Funny
-5.933056	"Further
-5.401577	"G.E.
-5.933056	"G.E.-ified"
-5.933056	"GREY'S
-5.677783	"Garbage
-5.933056	"Garden
-5.933056	"Garfield:
-5.933056	"Gay
-5.933056	"Gdel
-5.933056	"Geico
-5.933056	"Generally,"
-5.677783	"George
-5.401577	"Gerald
-5.677783	"German-American
-5.933056	"Germinal."
-5.401577	"Get
-5.933056	"Gettin'
-5.309807	"Getting
-5.933056	"Getz
-5.933056	"Gigli";
-5.677783	"Gilbert
-5.933056	"Gimme
-5.933056	"Gimpel
-5.933056	"Giovani
-5.518083	"Girl
-5.933056	"Girls
-5.933056	"Girls'
-5.518083	"Give
-5.401577	"Given
-5.933056	"Giving
-5.933056	"Gladiator."
-5.933056	"Glassmaking
-5.933056	"Glioblastoma,"
-5.677783	"Global
-5.933056	"Globe
-5.169628	"Go
-5.933056	"Goalies
-5.234086	"God
-5.933056	"Godspell"
-5.933056	"Godspell"),
-5.933056	"Goin'
-5.933056	"Going
-5.309807	"Gold
-5.933056	"Gold"
-5.677783	"Gold,"
-5.933056	"Goldfish,"
-5.933056	"Golly,
-5.933056	"Gone
-5.933056	"Gonzalves
-4.768703	"Good
-5.677783	"Goodbye
-5.933056	"Google
-5.933056	"Gospel
-5.933056	"Gossip
-5.677783	"Got
-5.933056	"Governing
-5.933056	"Government
-5.677783	"Governor
-5.933056	"Graffiti
-5.933056	"Gran's
-5.933056	"Grand
-5.933056	"Granddaddy
-5.933056	"Grandma"
-5.933056	"Granola
-5.933056	"Grave
-5.169628	"Grease"
-5.401577	"Grease,"
-5.401577	"Grease."
-5.933056	"Greatest
-5.933056	"Green
-5.933056	"Greene
-5.933056	"Greenwich
-5.677783	"Grey
-5.518083	"Grey's
-5.933056	"Ground
-5.933056	"Groundhog
-5.933056	"Guaranteed,
-5.933056	"Guernica."
-5.933056	"Guided
-5.933056	"Guiding
-5.518083	"Gulag
-5.933056	"Gumbel's
-5.933056	"Gustafer
-5.933056	"Gutterman's
-5.933056	"Gutterman's",
-5.933056	"Guttermans"
-5.933056	"Guy
-5.677783	"Guys
-5.933056	"H.M.S.
-5.933056	"HOLY
-5.933056	"Had
-5.933056	"Haffner"
-5.933056	"Hairspray"
-5.933056	"Hairspray,"
-5.677783	"Half
-5.933056	"Hall
-5.933056	"Hamlet"
-5.933056	"Hamlet."
-5.933056	"Hammerklavier"
-5.677783	"Hammerklavier,"
-5.933056	"Hands
-5.933056	"Handy
-5.933056	"Hanukkah
-5.677783	"Happily
-5.677783	"Happily"
-5.234086	"Happy
-5.933056	"Hardcore
-5.933056	"Haroun
-5.401577	"Harry
-5.933056	"Harry!"
-5.933056	"Harry"
-5.933056	"Harry,
-5.933056	"Harry?"
-5.933056	"Harvey
-5.933056	"Hats
-5.518083	"Have
-5.677783	"Having
-3.75293	"He
-5.677783	"He'd
-5.933056	"He'll
-4.272191	"He's
-5.933056	"Heads
-5.518083	"Health
-5.933056	"Heart
-5.933056	"Heartburn,"
-5.677783	"Heaven
-5.933056	"Heaven"
-5.677783	"Heavenly
-5.677783	"Hedge
-5.933056	"Hello-Central!")
-5.677783	"Help
-5.309807	"Henry
-5.309807	"Her
-5.933056	"Herb
-5.677783	"Here
-5.518083	"Here's
-5.518083	"Here,
-5.677783	"Heroes"
-5.933056	"Herotica"
-5.933056	"Hey
-5.401577	"Hey,
-5.933056	"Hi!"
-5.933056	"Hi."
-5.933056	"Hibachi!"
-5.933056	"Hibachi"
-5.933056	"Hidden
-5.677783	"Hide
-5.933056	"Hideous
-5.063824	"High
-5.933056	"Higher
-5.933056	"Hip-Hop
-5.933056	"Hiroshima
-4.90775	"His
-5.933056	"Historians
-5.933056	"Historically,
-5.401577	"History
-5.933056	"HoMu
-5.933056	"Hollow
-5.933056	"Hollywoodland"
-5.933056	"Hollywoodland,"
-5.677783	"Holy
-5.677783	"Home
-5.933056	"Homeland
-5.933056	"Homeowners
-5.933056	"Honest?"
-5.933056	"Honestly,
-5.933056	"Hoodwinked!"
-5.401577	"Hoosiers"
-5.677783	"Hopefully,
-5.933056	"Hopefully,"
-5.933056	"Hospital
-5.933056	"Hospital"
-5.677783	"Hot
-5.234086	"Hotel
-5.677783	"House
-5.933056	"House";
-4.495306	"How
-5.933056	"However
-5.518083	"However,
-5.518083	"Human
-5.933056	"Humans
-5.933056	"Hundreds
-5.933056	"Hush'd
-5.933056	"Hyphy
-3.060434	"I
-5.933056	"I'LL
-4.645254	"I'd
-4.94183	"I'll
-3.911867	"I'm
-5.933056	"I'm,
-4.384053	"I've
-5.933056	"I,
-5.933056	"I."
-5.933056	"ID
-5.933056	"IDIOCRACY,"
-5.933056	"Ian."
-5.518083	"Ice
-5.677783	"Iconoclasm,"
-5.933056	"Identity
-5.677783	"Idiocracy"
-5.933056	"Idol"
-5.933056	"Idol,"
-5.933056	"Idomeneo,"
-3.814461	"If
-5.933056	"If,
-5.933056	"Imagined
-5.933056	"Immorality";
-3.995538	"In
-5.933056	"Inadequate
-5.933056	"Incandescent
-5.933056	"Inch
-5.933056	"Inconvenient
-5.933056	"Increasingly,
-5.677783	"Independent
-5.677783	"Indiana
-5.677783	"Individual
-5.677783	"Individuals
-5.933056	"Infernal
-5.677783	"Infinite
-5.933056	"Inhuman
-5.933056	"Initially,
-5.933056	"Insects";
-5.933056	"Inspired
-5.518083	"Instead
-5.677783	"Instead,
-5.933056	"Insufficient
-5.933056	"Insurance
-5.933056	"Integrated
-5.933056	"Intel
-5.933056	"Interest
-5.933056	"Intertainer
-5.677783	"Interview
-5.933056	"Interviews
-5.933056	"Intimate
-5.401577	"Into
-5.933056	"Introduction
-5.933056	"Invention
-5.933056	"Inventions."
-5.933056	"Investing
-5.933056	"Investors,
-5.933056	"Investors,"
-5.933056	"Invincible,"
-5.518083	"Invitation
-5.933056	"Inviting
-5.933056	"Ira
-5.933056	"Iran
-5.933056	"Iran,
-5.933056	"Iranian
-5.518083	"Iraq
-5.933056	"Iraq,
-5.933056	"Iraqi
-5.933056	"Iris"
-5.677783	"Irish
-5.933056	"Ironically,
-4.846696	"Is
-5.933056	"Isadora,
-5.933056	"Isiah
-5.933056	"Islam
-5.401577	"Isn't
-5.933056	"Israel's
-3.534075	"It
-5.933056	"It'll
-3.494355	"It's
-5.933056	"Italian
-5.933056	"Ithad
-5.933056	"Ithaka:
-5.933056	"Its
-5.677783	"J
-5.933056	"JaMarcus
-5.933056	"Jabberwocky"(nicely
-5.933056	"Jackass
-5.933056	"Jackson
-5.933056	"Jan
-5.933056	"Jann,"
-5.677783	"Japan
-5.933056	"Japanese
-5.933056	"Jasper
-5.933056	"Jazz
-5.401577	"Je
-5.933056	"Jeb
-5.933056	"Jeez,"
-5.933056	"Jeff
-5.933056	"Jersey
-5.933056	"Jesu,
-5.401577	"Jesus
-5.933056	"Jewels"
-5.933056	"Jewish
-5.933056	"Jews"
-5.933056	"Jim
-5.933056	"Jimmy
-5.933056	"Jive
-5.677783	"Joe
-5.933056	"Joey"
-5.401577	"John
-5.309807	"Johnny
-5.677783	"Jon
-5.933056	"Jonestown:
-5.933056	"Joseph
-5.933056	"Journalism
-5.933056	"Journeys
-5.933056	"Joy."
-5.933056	"Jubilant
-5.933056	"Julia"),
-5.933056	"Julia,
-5.933056	"Jungle
-5.933056	"Jungle."
-5.677783	"Jurassic
-4.663543	"Just
-5.933056	"K.S.M.
-5.933056	"Kat
-5.677783	"Kate
-5.933056	"Kate"
-5.933056	"Katie
-5.677783	"Keep
-5.933056	"Keeping
-5.677783	"Ken
-5.933056	"Kerry
-5.169628	"Kids
-5.933056	"Kids'
-5.933056	"Kill
-5.933056	"Killed
-5.933056	"Killings
-5.933056	"Kindred
-5.933056	"King
-5.933056	"Kingdom
-5.933056	"Kitchen
-5.933056	"Knights
-5.933056	"Know
-5.933056	"Knowing
-5.933056	"Kofi
-5.933056	"Konvicted"
-5.933056	"Kunsang
-5.933056	"L.S.U.
-5.933056	"La
-5.677783	"LaDainian
-5.933056	"Laguna
-5.933056	"Lake
-5.933056	"Landmarks
-5.933056	"Larry
-5.518083	"Las
-5.234086	"Last
-5.933056	"Late
-5.933056	"Later
-5.933056	"Launch
-5.518083	"Law
-5.933056	"Lawrence
-5.309807	"Le
-5.933056	"LeBron
-5.677783	"Leave
-5.933056	"Left
-5.933056	"Legacies:
-5.677783	"Legends
-5.933056	"Legislators
-5.933056	"Legislature:
-5.677783	"Leper"
-5.401577	"Les
-5.113512	"Let
-4.978813	"Let's
-4.846696	"Letters
-5.933056	"Letters"
-5.933056	"Letters.")
-5.677783	"Letting
-5.933056	"Lettrisme."
-5.933056	"Leyendas:
-5.933056	"Libel
-5.309807	"Life
-5.933056	"Lifeboat."
-5.401577	"Like
-5.933056	"Lilly
-5.933056	"Lincoln
-5.933056	"Lipstick
-4.745535	"Little
-5.309807	"Live
-5.063824	"Living
-5.677783	"Lizards
-5.933056	"Lizzie
-5.933056	"Lobbyists
-5.933056	"Lobster
-5.677783	"Lon
-5.933056	"Long
-5.933056	"Look
-5.518083	"Look,
-5.933056	"Look,"
-5.933056	"Looking
-5.933056	"Looks
-5.933056	"Loose
-5.677783	"Lord
-5.677783	"Los
-5.933056	"Loser"
-5.933056	"Losing
-5.677783	"Lost
-5.933056	"Lots
-5.933056	"Love
-5.933056	"Love."
-5.933056	"Low-income
-5.933056	"Luncheon
-5.677783	"Lyrics
-5.933056	"M*A*S*H"
-5.933056	"MVPs,"
-5.677783	"Mad
-5.933056	"Madame
-5.933056	"Made
-5.933056	"Madison
-5.169628	"Magic
-5.677783	"Make
-5.933056	"Making
-5.933056	"Maliki,
-5.933056	"Malta."
-5.933056	"Mama,
-5.933056	"Mamma
-5.677783	"Man
-5.933056	"Man,"
-5.933056	"Manha
-5.677783	"Manhattan
-5.933056	"Manhattan"
-5.933056	"Mannerism
-5.677783	"Manning
-5.309807	"Many
-5.933056	"Marathon"
-5.933056	"Marche
-5.677783	"Maria"
-5.933056	"Maria,"
-5.933056	"Maria."
-5.933056	"Marley
-5.677783	"Martin
-5.933056	"Marvelous
-5.933056	"Mary
-5.933056	"Mary,
-5.933056	"Maslenitsa
-5.677783	"Masques
-5.933056	"Masques"
-5.933056	"Massoud's
-5.933056	"Master
-5.933056	"Masters
-5.933056	"Matrix
-5.677783	"Maximum
-5.933056	"Maya
-4.745535	"Maybe
-5.677783	"Maybe,
-5.933056	"McCabe
-5.933056	"McNabb
-5.518083	"Me
-5.933056	"Mean
-5.933056	"Measuring
-5.933056	"Meatless
-5.309807	"Medea"
-5.933056	"Medea."
-5.933056	"Medicare
-5.933056	"Medium"
-5.401577	"Meet
-5.933056	"Melissa,"
-5.933056	"Meltdown."
-5.677783	"Men
-5.933056	"Meninas,"
-5.933056	"Mentally,
-5.933056	"Merce
-5.933056	"Merchant"
-5.933056	"Merck
-5.933056	"Mermaids,"
-5.518083	"Messiah"
-5.933056	"Mestizaje:
-5.933056	"Metamorphosis"
-5.933056	"Methods
-5.677783	"Mexican"
-5.933056	"Miami
-5.933056	"Michael
-5.401577	"Michael,
-5.933056	"Michigan
-5.933056	"Microsoft's
-5.933056	"Middle
-5.933056	"Midi
-5.677783	"Midsummer
-5.518083	"Mikado,"
-5.933056	"Mike
-5.933056	"Millie"
-5.518083	"Million
-5.933056	"Mine
-5.933056	"Mine!"
-5.169628	"Miss
-5.933056	"Mj
-5.933056	"Moby-Dick,"
-5.933056	"Moisturizer
-5.234086	"Moktada!
-5.933056	"Moktada!"
-5.933056	"Moktada,"
-5.933056	"Mom,
-5.933056	"Monday
-5.933056	"Money
-5.933056	"Moneyball,"
-5.677783	"Mongolia:
-5.401577	"Monk."
-5.933056	"Monopoli,"
-5.933056	"Monsieur
-5.677783	"Monster
-5.933056	"Monthly
-5.933056	"Monty
-5.933056	"Moon
-5.933056	"Moon"
-5.518083	"Moonlight
-5.169628	"More
-5.677783	"Moroccan."
-4.793177	"Most
-5.933056	"Mothers
-5.933056	"Moulin
-5.933056	"Mouro,"
-5.933056	"Moving
-5.933056	"Mozart
-4.94183	"Mr.
-5.677783	"Mrs.
-5.933056	"Ms.
-5.933056	"Much
-5.933056	"Museum
-5.933056	"Museums
-5.309807	"Music
-4.165158	"My
-5.933056	"Myself,"
-5.309807	"Mystic
-5.933056	"N.C.I.S.
-5.933056	"N.Y.U.
-5.933056	"NCIS"
-5.933056	"Nach
-5.933056	"Nacho
-5.677783	"Nah,
-5.933056	"Naming
-5.933056	"Nan
-5.933056	"Nancy
-5.933056	"Narrow
-5.933056	"Nashville"
-5.933056	"Nassar
-5.933056	"Nast's
-5.933056	"Natalie
-5.933056	"Natty
-5.933056	"Natural
-5.677783	"Nature
-5.933056	"Naughty
-5.933056	"Need
-5.933056	"Negotiating
-5.933056	"Neither
-5.518083	"Never
-5.933056	"Never,"
-4.94183	"New
-5.933056	"Newspapers
-5.401577	"Next
-5.677783	"Next"
-5.677783	"Next,"
-5.933056	"Nice
-5.933056	"Nick
-5.933056	"Nick,
-5.234086	"Night
-5.933056	"Nights,"
-5.677783	"Nine
-5.933056	"Nip/Tuck,"
-4.521436	"No
-5.234086	"No,
-5.677783	"No,"
-5.933056	"No.
-5.933056	"No."
-5.113512	"Nobody
-5.933056	"Nobody's
-5.933056	"None
-5.518083	"Noreen
-5.933056	"Normally,
-5.401577	"North
-4.723541	"Not
-5.933056	"Notes
-5.113512	"Nothing
-5.933056	"Nothing.
-5.933056	"Notwithstanding
-4.578948	"Now
-5.401577	"Now,
-5.933056	"Now,"
-5.933056	"Nowadays,
-5.933056	"Numb3rs,"
-5.933056	"Nunsense:
-5.933056	"Nuremberg:
-5.933056	"Nutcracker"
-5.933056	"Nutcracker,"
-5.677783	"O
-5.933056	"O"
-5.933056	"O.K.,"
-5.933056	"OSHA
-5.933056	"Objective
-5.677783	"Objects
-5.933056	"Obviously
-5.309807	"Obviously,
-5.933056	"Ocampo,
-5.309807	"Ocean's
-4.978813	"Of
-5.933056	"Offensively,
-5.933056	"Office
-5.933056	"Officially,
-5.677783	"Often
-5.518083	"Oh
-5.677783	"Oh!
-5.063824	"Oh,
-5.933056	"Oh,"
-5.933056	"Oh."
-5.933056	"Oklahoma!"
-5.933056	"Olambrilla
-5.933056	"Old
-5.518083	"Oliver
-5.933056	"Oliver"
-5.933056	"Olmert
-5.933056	"Omegathorp:
-4.793177	"On
-5.019242	"Once
-5.933056	"Once,
-4.414542	"One
-5.933056	"One's
-5.169628	"Only
-5.933056	"Ooooh!
-5.677783	"Open
-5.933056	"Oprah"
-5.933056	"Oprah,"
-5.518083	"Or
-5.933056	"Or,
-5.933056	"Orchid
-5.933056	"Oriental
-5.933056	"Origin
-5.933056	"Orphans"
-5.933056	"Oscar"
-5.933056	"Oscar-worthy"
-5.933056	"Other
-5.933056	"Others
-5.933056	"Otherwise
-5.933056	"Otherwise,"
-4.355564	"Our
-5.677783	"Ours
-5.933056	"Out
-5.933056	"Outdoor
-5.401577	"Outsiders
-5.019242	"Over
-5.933056	"Over-rated,"
-5.933056	"Overcome
-5.933056	"Oyb
-5.933056	"P.&
-5.933056	"PH"
-5.933056	"Painless
-5.933056	"Painters
-5.933056	"Painting
-5.933056	"Palm
-5.933056	"Pan's
-5.933056	"Pandora's
-5.933056	"Panel
-5.933056	"Pannonica,"
-5.933056	"Papa's
-5.933056	"Papa,
-5.933056	"Paparazzi"
-5.933056	"Paparazzi,"
-5.518083	"Paradise
-5.933056	"Parameters
-5.933056	"Paris
-5.933056	"Paris's
-5.933056	"Parker
-5.677783	"Part
-5.933056	"Particularly
-5.933056	"Passage
-5.933056	"Passing
-5.933056	"Passion
-5.933056	"Paterson
-5.933056	"Pathtique"
-5.933056	"Patients
-5.933056	"Paul
-5.933056	"Pay
-5.677783	"Paying
-5.677783	"Penthouses
-4.250009	"People
-5.677783	"Perhaps
-5.933056	"Perhaps,"
-5.933056	"Persian
-5.933056	"Person-to-space
-5.933056	"Pervertimento
-5.677783	"Peter
-5.933056	"Peterson's
-5.933056	"Petite
-5.933056	"Petition
-5.933056	"Phaedrus,"
-5.933056	"Philo
-5.677783	"Photography
-5.933056	"Physician
-5.933056	"Physicists
-5.677783	"Picasso
-5.933056	"Pie
-5.933056	"Pigs"
-5.933056	"Pinocchio"
-5.933056	"Pioneering
-5.933056	"Pioneers,"
-5.401577	"Pirates
-5.933056	"Pirates"
-5.933056	"Pit
-5.933056	"Plagiarism
-5.933056	"Plastic
-5.677783	"Playhouse
-5.677783	"Playing
-5.518083	"Please
-5.933056	"Please,
-5.933056	"Plus
-5.933056	"Plus,
-5.933056	"Pocahontas"
-5.933056	"Poetry
-5.933056	"Poisonous
-5.677783	"Police
-5.933056	"Polish
-5.933056	"Political
-5.677783	"Politics
-5.677783	"Pollinia,"
-5.933056	"Polyphonia."
-5.933056	"Poncho."
-5.677783	"Poor
-5.933056	"Pop
-5.677783	"Popetown"
-5.933056	"Portable
-5.933056	"Portnoy's
-5.933056	"Portrait
-5.933056	"Portraits
-5.933056	"Posh
-5.933056	"Post-Ethnic
-5.933056	"Potentize."
-5.933056	"Pour
-5.933056	"Power"
-5.933056	"Poza,"
-5.933056	"Prada."
-5.933056	"Prayer
-5.933056	"Pre-opening,
-5.401577	"Predators
-5.933056	"Preludio
-5.933056	"Prepare
-5.933056	"Preserve
-5.933056	"Presidential
-5.518083	"Pretty
-5.933056	"Previous
-5.933056	"Prez
-5.933056	"Pride
-5.169628	"Prime
-5.933056	"Princeton's
-5.933056	"Private
-5.933056	"Probably
-5.933056	"Procrastination
-5.933056	"Production
-5.933056	"Project
-5.933056	"Prolonging
-5.933056	"Propensities
-5.518083	"Property
-5.933056	"Protection
-5.933056	"Provincial
-5.933056	"Psychoanalysts
-5.677783	"Public
-5.933056	"Pundits,
-5.933056	"Puritani"
-5.677783	"Put
-5.933056	"Putnam
-5.677783	"QUIET
-5.933056	"Qu
-5.933056	"Quadrantids"
-5.933056	"Queen-tet,"
-5.933056	"Queentet"
-5.933056	"Questions
-5.518083	"Quiet
-5.933056	"Quills,"
-5.933056	"Quills."
-5.933056	"Quilt
-5.677783	"Quite
-4.978813	"R"
-5.933056	"R,"
-5.933056	"R.A.'s
-5.933056	"RCTV's
-5.933056	"REISEBUCH
-5.933056	"Rachel
-5.933056	"Racing
-5.933056	"Radiation
-5.933056	"Radical
-5.677783	"Radio
-5.933056	"Raga:
-5.933056	"Rage,
-5.933056	"Raiders
-5.933056	"Randy
-5.933056	"Rangers"
-5.933056	"Rap
-5.933056	"Rapt,"
-5.933056	"Rawhide."
-5.677783	"Read
-5.677783	"Reading
-5.677783	"Really,
-5.933056	"Rebel
-5.933056	"Recently
-5.933056	"Recommended
-5.518083	"Red
-5.933056	"Reels
-5.933056	"Refugee
-5.933056	"Refuse
-5.933056	"Reggie
-5.933056	"Reimagining
-5.933056	"Reisebuch
-5.019242	"Remember
-5.933056	"Remember,
-5.933056	"Renaissance"
-5.933056	"Renaissance.")
-5.933056	"Rendition,"
-5.933056	"Renton
-5.933056	"Rents
-5.933056	"Repatriation
-5.933056	"Repent
-5.933056	"Replacing
-5.677783	"Republicans
-5.933056	"Rescue
-5.933056	"Rethinking
-5.933056	"Return
-5.933056	"Rich
-5.933056	"Richard
-4.978813	"Right
-5.933056	"Ring
-5.933056	"Riots
-5.677783	"Rip
-5.933056	"Rising
-5.933056	"Rite
-5.933056	"Rivalry
-5.933056	"River
-5.518083	"Riverside"
-5.933056	"Road
-5.933056	"Road"
-5.933056	"Roaming
-5.933056	"Robbers
-5.933056	"Robert
-5.933056	"RoboCop."
-5.518083	"Rock
-5.518083	"Rocky
-5.933056	"Rocky"
-5.933056	"Rocky."
-5.933056	"Rod
-5.933056	"Roger
-5.309807	"Rome"
-5.933056	"Rome"?
-5.933056	"Rome,"
-5.933056	"Rome."
-5.933056	"Romeo
-5.933056	"Rose,"
-5.933056	"Rough
-5.933056	"Rounds,
-5.933056	"Roving
-5.677783	"Roy
-5.933056	"Roy's
-5.933056	"Rubberband
-5.677783	"Running
-5.933056	"Russell
-5.933056	"Russell's
-5.933056	"Rutgers
-5.933056	"Rwanda:
-5.933056	"S.O.S.
-5.933056	"SECRET."
-5.933056	"SXR
-5.933056	"Sacre
-5.234086	"Sacred
-5.518083	"Sacrifice"
-5.234086	"Saddam
-5.933056	"Saddam,
-5.933056	"Said
-5.677783	"Sales
-5.933056	"Salome,"
-5.933056	"Samurai
-5.933056	"San
-5.933056	"Sarah,"
-5.933056	"Sasol
-5.933056	"Satellite
-5.401577	"Saturday
-5.933056	"Satyricon"
-5.933056	"Satyricon,"
-5.933056	"Saul
-5.933056	"Save
-5.933056	"Saving
-5.933056	"Savings
-5.677783	"Saw
-5.677783	"Say
-5.933056	"Scanner
-5.933056	"Scarborough
-5.933056	"Scary
-5.933056	"Scenes
-5.933056	"Scenic
-5.933056	"Schools
-5.933056	"Science
-5.933056	"Scientists
-5.933056	"Scream"
-5.933056	"Screeners
-5.933056	"Sculptor's
-5.677783	"Sea
-5.933056	"Seamus
-5.677783	"Second
-5.933056	"Secretary
-5.677783	"Security
-5.933056	"Seeing
-5.518083	"Seinfeld"
-5.933056	"Seinfeld."
-5.933056	"Self-Exams
-5.677783	"Self-Portrait
-5.933056	"Self-Portrait"
-5.677783	"Senate
-5.677783	"Senator
-5.933056	"Send
-5.933056	"Sense
-5.933056	"Serenata"
-5.933056	"Serge
-5.933056	"Serving
-5.309807	"Sesame
-5.677783	"Seven
-5.933056	"Seven"
-5.933056	"Seven,"
-5.933056	"Sex
-5.933056	"Sex,
-5.933056	"Sexus,"
-5.933056	"Sgt.
-5.933056	"Shaira,"
-5.933056	"Shareholders'
-5.933056	"Shariah
-4.24286	"She
-5.933056	"She'll
-4.819113	"She's
-5.933056	"Sheep."
-5.933056	"Shells
-5.933056	"Sherrybaby."
-5.933056	"Shh!"
-5.933056	"Shining
-5.933056	"Shirley,
-5.933056	"Shop
-5.933056	"Shopping
-5.933056	"Short
-5.518083	"Should
-5.677783	"Show
-5.933056	"Showboat"
-5.677783	"Showgirls"
-5.933056	"Showtime
-5.933056	"Shrek
-5.677783	"Shrek"
-5.677783	"Shu"
-5.518083	"Shu,"
-5.933056	"Shu:
-5.518083	"Shut
-5.933056	"Silences,"
-5.933056	"Silver
-5.933056	"Simple
-5.933056	"Simply
-5.933056	"Sin
-5.677783	"Sinai
-5.309807	"Since
-5.933056	"Singer's
-5.933056	"Singin'
-5.933056	"Sisterhood
-5.933056	"Sisters
-5.933056	"Sisters,"
-5.933056	"Sitting
-5.677783	"Six
-5.933056	"Skag
-5.933056	"Skeleton
-5.933056	"Skull
-5.677783	"Sky
-5.234086	"Skylight
-5.933056	"Sleeper"
-5.677783	"Sleeping
-5.933056	"Sluggers."
-5.518083	"Small
-5.933056	"Smokers
-5.933056	"Snakes
-5.933056	"Snatch"
-5.933056	"Snatch."
-5.933056	"Sniffling,
-5.677783	"Snow
-5.933056	"Snowflakes";
-4.32883	"So
-5.401577	"So,
-5.933056	"So?
-5.933056	"SoHo:
-5.677783	"Soldier
-4.876151	"Some
-5.401577	"Somebody
-5.933056	"Someday
-5.933056	"Somehow,
-5.677783	"Someone
-5.933056	"Somethin'
-4.876151	"Sometimes
-5.933056	"Sometimes,
-5.518083	"Somewhere
-5.933056	"Song
-5.933056	"Soon
-5.933056	"Sooner
-5.933056	"Sophie
-5.677783	"Sopranos"
-5.933056	"Sorcerer's
-5.933056	"Sorry,
-5.933056	"Sorry-Grateful,"
-5.933056	"Sort
-5.933056	"Soul
-5.933056	"Sounds
-5.234086	"South
-5.677783	"Spaceship
-5.677783	"Spare
-5.933056	"Spartacus"
-5.933056	"Speaking
-5.677783	"Special
-5.933056	"Speech
-5.933056	"Spetters,"
-5.518083	"Spider-Man
-5.933056	"Spider-Man"
-5.933056	"SportsCenter"
-5.933056	"Spring
-5.933056	"Sprites,"
-5.677783	"St.
-5.933056	"Stage
-5.933056	"Stairway
-5.933056	"Standing
-5.234086	"Star
-5.933056	"Starry
-5.677783	"Starship
-5.933056	"Start
-5.677783	"State
-5.933056	"Staten
-5.518083	"Stay
-5.933056	"Steel
-5.933056	"Step
-5.933056	"Sternum,"
-5.933056	"Steve
-5.933056	"Stewy"
-5.677783	"Sticks
-5.677783	"Still
-5.933056	"Stonewall
-5.933056	"Storm
-5.933056	"Story
-5.933056	"Strange
-5.933056	"Stranger
-5.677783	"Street
-5.677783	"Studies
-5.933056	"Study
-5.933056	"Stumble,"
-5.933056	"Subway
-5.401577	"Success
-5.677783	"Such
-5.933056	"Suddenly
-5.933056	"Suite
-5.309807	"Summer
-5.933056	"Sunset
-5.677783	"Super
-5.933056	"Superfly,"
-5.933056	"Superhero,
-5.677783	"Superman
-5.933056	"Supernanny"
-5.933056	"Superstar
-5.677783	"Sure,
-5.933056	"Sure,"
-5.933056	"Surviving
-5.933056	"Survivor"
-5.933056	"Susanna
-5.933056	"Sute
-5.933056	"Suzanne,
-5.933056	"Swan
-5.933056	"Swedish
-5.518083	"Sweeney
-5.933056	"Sweeping
-5.933056	"Sweet
-5.933056	"Swept
-5.933056	"Swimming"
-5.933056	"Swimmy,"
-5.933056	"Sylvia"
-5.677783	"Syriana"
-5.518083	"Syriana,"
-5.933056	"Syriana."
-5.933056	"THAT
-5.309807	"THE
-5.518083	"Take
-5.677783	"Taking
-5.933056	"Talented
-5.933056	"Talking
-5.933056	"Talladega
-5.933056	"Tamino
-5.933056	"Target:
-5.933056	"Tarzan"
-5.933056	"Tax
-5.933056	"Taxis
-5.518083	"Tea
-5.933056	"Teacher
-5.933056	"Team
-5.933056	"Technically,
-5.933056	"Technology
-5.677783	"Teddy
-5.933056	"Teddy!"
-5.677783	"Teenage
-5.933056	"Telegraph
-5.933056	"Tell
-5.933056	"Temp
-5.401577	"Ten
-5.933056	"Terminator"
-5.677783	"Terpsichore's
-5.933056	"Terrell
-5.933056	"Terrorist,"
-5.933056	"Testosterone
-5.933056	"Thailand
-5.518083	"Thank
-5.933056	"Thanks
-4.303646	"That
-4.272191	"That's
-5.677783	"That,
-3.118675	"The
-4.90775	"Their
-5.933056	"Thelma
-4.819113	"Then
-5.933056	"Theophany"
-5.933056	"Theoretically,
-3.932188	"There
-4.31188	"There's
-5.677783	"Therefore
-5.933056	"Therefore,
-5.933056	"Therefore,"
-4.508174	"These
-5.933056	"Thesis
-3.850271	"They
-5.677783	"They'd
-5.518083	"They'll
-4.495306	"They're
-5.401577	"They've
-4.90775	"Things
-5.677783	"Think
-5.933056	"Think,"
-5.401577	"Thinking
-5.933056	"Thirteen
-5.933056	"Thirteen"
-5.933056	"Thirty
-3.75987	"This
-5.933056	"This"
-4.94183	"Those
-5.933056	"Though
-5.933056	"Thought"
-5.234086	"Three
-5.933056	"Thunder
-5.933056	"Thus,
-5.933056	"Tiananmen
-5.933056	"Tigers
-5.677783	"Tiki
-5.933056	"Tiki's
-5.401577	"Tile
-5.933056	"Tim
-5.933056	"Tinted
-5.933056	"Tintern
-5.518083	"Titanic"
-4.404139	"To
-5.518083	"Today
-5.309807	"Today"
-5.933056	"Today's
-5.933056	"Today,
-5.933056	"Told
-5.933056	"Tom
-5.933056	"Tomonaga
-5.933056	"Tonight
-5.933056	"Tonight,
-5.677783	"Too
-5.933056	"Touchdown,
-5.933056	"Touching
-5.933056	"Toulouse-Lautrec
-5.933056	"Tourists
-5.933056	"Toy
-5.933056	"Toys,
-5.677783	"Track
-5.933056	"Traditions
-5.933056	"Traffic"
-5.933056	"Traffic.")
-5.933056	"Transamerica,"
-5.933056	"Travel
-5.518083	"Traveling
-5.933056	"TreeMendous,"
-5.933056	"TriBeCa
-5.933056	"Trials
-5.933056	"Trittico.")
-5.677783	"Troops
-5.933056	"Trout"
-5.677783	"Troy"
-5.933056	"Troy,"
-5.933056	"Trumpet
-5.933056	"Truth
-5.933056	"Truth,
-5.933056	"Truth.
-5.933056	"Truthfully,
-5.933056	"Turandot."
-5.933056	"Turkish
-5.933056	"Turkmenistan
-5.677783	"Turning
-5.933056	"Turtle
-5.933056	"Twelve"
-5.933056	"TwinForce"
-5.309807	"Two
-5.933056	"Two,
-5.933056	"U.S.
-5.933056	"U.S.A.!
-5.933056	"U.S.C.
-5.933056	"U218
-5.933056	"USA
-4.978813	"Ugly
-5.933056	"Uh
-5.933056	"Ultimately
-5.933056	"Ultimately,
-5.933056	"Ulysses"
-5.933056	"Um
-5.933056	"Unbind
-5.933056	"Uncorked:
-5.933056	"Under
-5.933056	"Underground"
-5.933056	"Understanding
-5.518083	"Unfortunately,
-5.933056	"Unions?"
-5.677783	"United
-5.933056	"Unk",
-5.401577	"Unless
-5.933056	"Unlike
-5.933056	"Unreasonable
-5.933056	"Until
-5.933056	"Untitled"
-5.933056	"Up
-5.933056	"Urban
-5.677783	"Use
-5.933056	"Using
-5.933056	"Usually,
-5.933056	"VX
-5.933056	"Vacuuming
-5.933056	"Van
-5.933056	"Variations
-5.933056	"Vatican
-5.933056	"Venezuelans
-5.933056	"Venus,"
-5.677783	"Very
-5.933056	"Veterans
-5.933056	"Via
-5.234086	"Vicious
-5.933056	"Victoria's
-5.933056	"Violet
-5.933056	"Virgil
-5.933056	"Visionary
-5.933056	"Voice
-5.933056	"Voices
-5.933056	"Volatility
-5.933056	"Volver,"
-5.677783	"Voters
-5.933056	"WUSA,"
-5.677783	"Waiting
-5.933056	"Waking
-5.933056	"Wako:
-5.933056	"Walking
-5.933056	"Wall"
-5.933056	"Wallace
-5.933056	"Wandering
-5.401577	"War
-5.933056	"Warner
-5.933056	"Wars
-5.518083	"Was
-5.677783	"Wasted
-5.933056	"Wasteland,"
-5.933056	"Watch
-5.933056	"Watching
-5.933056	"Water
-5.933056	"Wayne
-3.40957	"We
-5.518083	"We'd
-5.019242	"We'll
-4.003637	"We're
-4.627705	"We've
-5.933056	"We,
-5.933056	"Weapons
-5.933056	"Weatherman
-5.933056	"Web
-5.933056	"Wedding
-5.933056	"Weekend
-5.401577	"Welcome
-5.019242	"Well,
-5.933056	"West
-4.0892	"What
-4.94183	"What's
-5.933056	"What,"
-5.401577	"What?"
-5.933056	"Whatever
-3.991544	"When
-5.677783	"Whenever
-4.978813	"Where
-5.677783	"Where's
-5.933056	"Wherever
-5.401577	"Whether
-5.518083	"Which
-4.978813	"While
-5.677783	"White
-5.933056	"White,"
-5.933056	"Whitelife
-4.819113	"Who
-5.677783	"Who's
-5.933056	"Whom
-5.933056	"Whose
-4.663543	"Why
-5.933056	"Why,
-5.933056	"Why?"
-5.677783	"Wicked"
-5.933056	"Wicked."
-5.933056	"Wieden
-5.677783	"Wild
-5.518083	"Will
-5.677783	"William
-5.933056	"Wilson
-5.677783	"Winning
-5.933056	"Winning,"
-5.169628	"Winter
-5.933056	"Winterreise,"
-5.518083	"Wish
-5.933056	"Wit
-4.645254	"With
-5.677783	"Within
-5.309807	"Without
-5.933056	"Woman
-5.677783	"Women
-5.933056	"Women's
-5.933056	"Wonderful
-5.933056	"Wonderful.
-5.933056	"Word
-5.933056	"Work
-5.933056	"Working
-5.933056	"Works
-5.677783	"World
-5.309807	"Would
-5.309807	"Wow,
-5.933056	"Wow,"
-5.933056	"Wrestling
-5.677783	"Write
-5.933056	"Writers
-5.677783	"X-Men:
-5.933056	"X-hour
-5.933056	"Xunlei
-5.933056	"Yahoo
-5.933056	"Yantra,"
-5.933056	"Yeah
-5.063824	"Yeah,
-5.933056	"Yeah,"
-5.933056	"Yeah."
-5.933056	"Yeah?"
-5.933056	"Years
-5.677783	"Yellow
-5.933056	"Yellow"
-5.933056	"Yellowstone
-5.933056	"Yeoman,"
-5.113512	"Yes,
-5.518083	"Yes,"
-5.933056	"Yes."
-5.933056	"Yiddish
-5.933056	"Yo
-5.933056	"Yonnondio:
-3.711381	"You
-5.518083	"You'd
-5.234086	"You'll
-4.723541	"You're
-4.90775	"You've
-5.933056	"You:
-5.518083	"Young
-5.933056	"Younger
-5.309807	"Your
-5.933056	"Yours,
-5.933056	"Zabibah
-5.933056	"Zoli."
-5.933056	"Zyprexa
-5.933056	"Zyprexa,"
-5.677783	"Zyzzyx
-3.987587	"a
-5.518083	"about
-5.933056	"absolute
-5.933056	"absolute"
-5.933056	"absolutely
-5.933056	"abusive
-5.933056	"accordingly,
-5.933056	"accounting
-5.933056	"achieve
-5.933056	"acid
-5.933056	"act
-5.933056	"actor's
-5.933056	"actual
-5.933056	"addio,"
-5.933056	"adios,"
-5.933056	"adjusting
-5.933056	"adjustment
-5.933056	"adult
-5.933056	"advertising
-5.933056	"afflicted
-5.933056	"aggressive
-5.933056	"agoraphobia"
-5.063824	"all
-5.933056	"all-inclusive
-5.933056	"all-male,
-5.933056	"allowing"
-5.933056	"allows
-5.933056	"almost
-5.933056	"alone."
-5.933056	"although
-5.677783	"always
-5.933056	"amazed
-5.933056	"among
-4.702607	"an
-5.933056	"an"
-5.933056	"anchor
-4.320272	"and
-5.933056	"angel
-5.933056	"another
-5.933056	"anticipatory
-5.169628	"any
-5.933056	"anything
-5.933056	"apartheid"
-5.933056	"apparent"
-5.933056	"appeal
-5.933056	"approach
-5.113512	"are
-5.933056	"arousal"
-5.933056	"artificial"
-5.933056	"artificially
-5.401577	"as
-5.933056	"assurances
-5.169628	"at
-5.933056	"attitude"
-5.933056	"audio
-5.933056	"audio-kinetic"
-5.933056	"aural
-5.933056	"authentic
-5.933056	"authentic"?
-5.933056	"author,"
-5.933056	"authoritarian"
-5.933056	"autocracy"
-5.677783	"aversive
-5.933056	"avoidant"
-5.933056	"awaits
-5.933056	"awareness"
-5.933056	"babies"
-5.933056	"babysitting
-5.677783	"back
-5.933056	"back-to-back
-5.933056	"bad"
-5.933056	"balanced
-5.933056	"bar
-5.933056	"barely
-5.933056	"barrel,"
-5.933056	"bau
-5.677783	"be
-5.933056	"beat
-5.063824	"because
-5.933056	"because."
-5.933056	"become
-5.677783	"been
-5.933056	"beg
-5.933056	"beginning
-5.933056	"behave
-5.933056	"behaves
-5.933056	"being
-5.933056	"bench-warming
-5.677783	"best
-5.933056	"better
-5.933056	"bhenchod,"
-5.933056	"bicoastal
-5.309807	"big
-5.933056	"big"
-5.933056	"big,
-5.933056	"bigger
-5.933056	"bigha,"
-5.933056	"biodata"
-5.933056	"bipolar
-5.933056	"black
-5.933056	"bland
-5.933056	"bloggers'
-5.933056	"bloody
-5.933056	"bobo"
-5.677783	"body
-5.933056	"bomblets"
-5.933056	"boo"
-5.933056	"book
-5.933056	"books
-5.933056	"born
-5.933056	"both
-5.933056	"boundary
-5.933056	"braggadocio"
-5.933056	"brain
-5.933056	"break
-5.933056	"breakage,"
-5.933056	"breakfast"
-5.933056	"bring
-5.933056	"broad"
-5.933056	"broaden
-5.933056	"broken
-5.933056	"brutal
-5.933056	"budget
-5.933056	"building
-5.933056	"bulging
-5.933056	"bulletproof"
-5.933056	"bumping"
-5.933056	"bundlers,"
-5.933056	"bundling"
-5.933056	"bunny
-5.933056	"business
-5.933056	"business,
-5.933056	"businesspeople
-5.933056	"busman's
-5.933056	"busted
-4.250009	"but
-5.933056	"butcher-like"
-5.933056	"buy
-5.401577	"by
-5.677783	"c"
-5.933056	"calm
-5.933056	"campaign
-5.933056	"campus
-5.518083	"can
-5.933056	"can't
-5.933056	"canap"
-5.933056	"careful
-5.933056	"casts
-5.933056	"caught
-5.933056	"cautiously
-5.933056	"celebrate
-5.933056	"celebrity."
-5.933056	"challenged
-5.933056	"champion
-5.677783	"change
-5.933056	"changed
-5.933056	"character,"
-5.677783	"chief
-5.677783	"child
-5.933056	"children
-5.933056	"chimineas,"
-5.933056	"clean
-5.933056	"clean"
-5.677783	"clear
-5.933056	"clear,
-5.933056	"clerk"
-5.933056	"climate
-5.933056	"close."
-5.933056	"club
-5.933056	"coastal
-5.933056	"coined
-5.933056	"color
-5.933056	"combat
-5.933056	"comes
-5.933056	"comfortable"
-5.677783	"coming
-5.933056	"committed
-5.933056	"common
-5.933056	"communal
-5.933056	"community
-5.933056	"commute"
-5.933056	"companies
-5.933056	"comparable
-5.933056	"comparing
-5.933056	"compel
-5.933056	"competent
-5.933056	"competent,
-5.933056	"competitively
-5.933056	"completely
-5.933056	"composers
-5.933056	"comprehensive
-5.933056	"condemned
-5.677783	"condone
-5.677783	"conduct
-5.933056	"confident
-5.933056	"confirmation
-5.933056	"connect
-5.933056	"connected
-5.933056	"consciousness
-5.933056	"consisting
-5.401577	"constitutional
-5.933056	"consultation"
-5.933056	"consummate
-5.933056	"contains"
-5.933056	"content,"
-5.933056	"context-based
-5.933056	"continues
-5.933056	"converging
-5.933056	"convoluted"
-5.933056	"cooking
-5.933056	"cool"
-5.933056	"copy"
-5.933056	"core
-5.933056	"corralling
-5.933056	"correction"
-5.933056	"could
-5.933056	"coy"
-5.933056	"crashed"
-5.933056	"crazed
-5.933056	"create
-5.933056	"created
-5.933056	"creating
-5.401577	"crimes
-5.933056	"criminalize"
-5.933056	"crossroads
-5.677783	"culture
-5.933056	"curing"
-5.933056	"curiosity
-5.933056	"currently
-5.933056	"curses
-5.933056	"cut
-5.933056	"dangerous"
-5.933056	"data
-5.933056	"day
-5.933056	"dazzling,
-5.933056	"deals
-5.933056	"death's
-5.933056	"decency"
-5.933056	"decent
-5.933056	"deep"
-5.677783	"deeply
-5.933056	"definite
-5.933056	"definitely
-5.677783	"delicate
-5.933056	"delighted"
-5.933056	"delivering
-5.677783	"demanding
-5.933056	"deserved
-5.933056	"despite
-5.933056	"development"
-5.933056	"diabetics."
-5.518083	"did
-5.933056	"didn't
-5.933056	"differed
-5.933056	"different"
-5.933056	"direct
-5.933056	"directly
-5.933056	"directs
-5.234086	"dirty
-5.677783	"disability"
-5.933056	"disappeared"
-5.933056	"disappoint"
-5.933056	"disappointing,"
-5.933056	"disastrously,"
-5.933056	"disavowed
-5.933056	"discourage"
-5.933056	"discovered
-5.933056	"discs"
-5.933056	"disgusting."
-5.933056	"disrupt"
-5.933056	"divine
-5.401577	"do
-5.933056	"does
-5.933056	"doing
-5.933056	"dominance,
-5.063824	"don't
-5.933056	"dormitories"
-5.933056	"downward
-5.933056	"dramatic
-5.933056	"dream
-5.933056	"driving
-5.933056	"drop
-5.677783	"drug
-5.933056	"drunken
-5.933056	"dry
-5.677783	"dude.")
-5.933056	"dues"
-5.933056	"dull-eyed
-5.933056	"dumbifying"
-5.933056	"during
-5.933056	"earmarks"
-5.933056	"earn"
-5.933056	"easy
-5.933056	"easy"
-5.677783	"eat
-5.933056	"echo
-5.933056	"eco-terrorist."
-5.933056	"economic
-5.933056	"edgy
-5.933056	"efficiencies."
-5.933056	"either
-5.933056	"elegant
-5.933056	"eliminating
-5.933056	"embodies
-5.933056	"embrace
-5.677783	"encounter
-5.677783	"end
-5.677783	"energy
-5.933056	"energy"
-5.933056	"enjoy."
-5.933056	"enormous
-5.933056	"enough
-5.933056	"epidemic
-5.933056	"equality
-5.677783	"escaped
-5.401577	"especially
-5.933056	"essentially
-5.933056	"establish
-5.933056	"ethical
-5.401577	"even
-5.933056	"every
-5.933056	"everybody
-5.933056	"evil
-5.933056	"exactly
-5.933056	"examination
-5.677783	"excellent,"
-5.933056	"exigent
-5.933056	"expanded
-5.933056	"expect
-5.933056	"expensive
-5.933056	"experiential
-5.933056	"explain
-5.933056	"explanatory
-5.933056	"exploratory
-5.933056	"explosively
-5.933056	"exposing
-5.677783	"extended
-5.933056	"extra-record
-5.933056	"extraordinarily
-5.933056	"extraordinary
-5.933056	"eyes":
-5.933056	"f"
-5.933056	"facts
-5.677783	"failing
-5.933056	"failure,"
-5.933056	"fairly
-5.933056	"fake
-5.933056	"family
-5.933056	"fast
-5.933056	"fear
-5.933056	"fearless
-5.933056	"feelers"
-5.933056	"feisty,
-5.677783	"femme
-5.933056	"fertile
-5.933056	"fight
-5.933056	"filmmaking
-5.677783	"financial
-5.933056	"fine
-5.933056	"firm
-5.677783	"first
-5.933056	"first,"
-5.677783	"first-rate."
-5.933056	"firsts"
-5.933056	"fishnet
-5.933056	"fit
-5.933056	"fix
-5.933056	"fix"
-5.933056	"flame."
-5.933056	"flex"
-5.933056	"flipped
-5.677783	"flow."
-5.113512	"for
-5.933056	"foreign
-5.933056	"forget
-5.933056	"fortunately
-5.933056	"found"
-5.933056	"foxy
-5.933056	"free
-5.933056	"freedom."
-5.933056	"freelancer."
-5.933056	"frequent
-5.933056	"fresh,
-5.933056	"frictions"
-5.518083	"from
-5.933056	"frontline
-5.933056	"fry
-5.677783	"full
-5.933056	"fundamentalist"
-5.933056	"further
-5.933056	"gai."
-5.933056	"gallows
-5.933056	"ganwars,"
-5.933056	"gave
-5.933056	"gay
-5.933056	"gays
-5.933056	"general
-5.933056	"general"
-5.933056	"generated"
-5.933056	"genuine"
-5.518083	"get
-5.933056	"getting
-5.933056	"giddy"
-5.933056	"gingerly,"
-5.309807	"give
-5.933056	"giving
-5.933056	"glioblastoma."
-5.933056	"glittering"
-5.677783	"global
-5.401577	"go
-5.933056	"god,"
-5.677783	"goes
-5.933056	"going
-5.933056	"golden
-5.309807	"good
-5.933056	"good"
-5.933056	"got
-5.677783	"govern
-5.677783	"government
-5.933056	"graceful
-5.933056	"grandfather
-5.933056	"grassroots
-5.933056	"grave
-5.401577	"great
-5.933056	"great"
-5.933056	"greater
-5.677783	"greatest
-5.677783	"green"
-5.933056	"greenest"
-5.933056	"grid"
-5.933056	"grieves
-5.933056	"grow
-5.933056	"growth
-5.933056	"grudges
-5.933056	"grueling
-5.933056	"guaranteed
-5.933056	"gun,"
-5.933056	"guy"
-5.169628	"had
-5.933056	"hairdressing
-5.933056	"handicapped
-5.933056	"handlers"
-5.933056	"hanged
-5.933056	"hard
-5.933056	"harmonize"
-5.933056	"harsh
-4.768703	"has
-5.933056	"hate"
-5.019242	"have
-5.933056	"haven't
-5.933056	"haves"
-4.90775	"he
-5.933056	"he's
-5.933056	"heard
-5.933056	"hearken
-5.933056	"heart,"
-5.933056	"heavily
-5.933056	"hedge
-5.933056	"hedonic
-5.677783	"held
-5.677783	"help
-5.677783	"helps
-5.933056	"hero"
-5.933056	"hero,"
-5.933056	"hidden
-5.933056	"high
-5.933056	"high-leverage
-5.933056	"highly
-5.933056	"him,"
-5.933056	"hip"
-5.933056	"hire
-5.401577	"his
-5.933056	"hockey"
-5.933056	"holiday
-5.933056	"holy
-5.933056	"home
-5.677783	"home"
-5.933056	"homeland
-5.933056	"homeless,
-5.933056	"homers"
-5.933056	"honor
-5.677783	"honor"
-5.933056	"hook
-5.933056	"horrified"
-5.933056	"horsemen
-5.933056	"hospital,"
-5.234086	"how
-5.933056	"http://"),
-5.933056	"https://"
-5.933056	"huh?"
-5.933056	"hundreds
-5.933056	"hyperpartisan."
-5.933056	"hyphy")
-5.933056	"hysteria,"
-5.933056	"i"
-5.933056	"iTV
-5.113512	"if
-5.933056	"ignorant
-5.933056	"illegal
-5.933056	"illusion"
-5.933056	"imaginative
-5.933056	"imagine
-5.933056	"impair"
-5.933056	"improve
-5.933056	"improvements."
-4.819113	"in
-5.933056	"incandescent"
-5.933056	"including
-5.933056	"incomplete,"
-5.933056	"incredible"
-5.677783	"incredibly
-5.933056	"independent
-5.677783	"independent"
-5.933056	"indifference
-5.933056	"industrialized"
-5.933056	"inept."
-5.933056	"information,
-5.933056	"initiated
-5.933056	"ink
-5.933056	"innovation
-5.933056	"inside
-5.933056	"inside"
-5.933056	"inside-the-joke
-5.933056	"insightful
-5.933056	"inspire."
-5.933056	"inspired
-5.677783	"insurmountable"
-5.933056	"intellectual
-5.933056	"intended
-5.933056	"interest
-5.933056	"intergroup
-5.933056	"interim
-5.933056	"interventions,"
-5.933056	"into
-5.933056	"invaluable
-5.933056	"invent
-5.933056	"investigating
-5.933056	"investment
-5.933056	"investors
-5.933056	"irrelevant"
-4.404139	"is
-5.933056	"isn't
-4.819113	"it
-4.978813	"it's
-5.677783	"its
-5.933056	"joined
-5.933056	"jumped
-5.234086	"just
-5.933056	"justice
-5.933056	"k"
-5.933056	"k,"
-5.933056	"kabbalah
-5.933056	"keeping
-5.518083	"keeps
-5.933056	"kickers"
-5.933056	"kicking
-5.933056	"kill
-5.518083	"kind
-5.933056	"know
-5.933056	"lack
-5.933056	"lacks
-5.933056	"land
-5.933056	"last-minute,
-5.933056	"late
-5.933056	"late-night
-5.933056	"laughed
-5.677783	"lay
-5.933056	"lead"
-5.933056	"legacy
-5.518083	"legal
-5.933056	"leichte
-5.933056	"lemon
-5.401577	"less
-5.933056	"let
-5.933056	"lettuce
-5.677783	"liberal
-5.933056	"liberated."
-5.933056	"libertarian"
-5.933056	"library,"
-5.933056	"lieutenant
-5.933056	"life
-5.677783	"life-saving."
-5.933056	"lifelike"
-5.933056	"lifers"
-5.677783	"light
-5.933056	"lighten
-5.113512	"like
-5.933056	"like"
-5.933056	"limousine
-5.933056	"linkage
-5.677783	"liquidity-motivated
-5.933056	"listen
-5.933056	"listening
-5.933056	"listing
-5.933056	"literally
-5.401577	"little
-5.933056	"local
-5.933056	"lodu,"
-5.933056	"lollalollaloola"
-5.933056	"lonesome
-5.933056	"long-term
-5.933056	"longer,
-5.401577	"look
-5.518083	"looked
-5.933056	"looking
-5.933056	"looks
-5.933056	"looping,"
-5.933056	"lots
-5.933056	"loudness"
-5.933056	"love
-5.933056	"low
-5.933056	"lull."
-5.933056	"machinery
-5.677783	"made
-5.933056	"maderchod")
-5.933056	"magical
-5.933056	"maintain
-5.933056	"major
-5.933056	"majority"
-5.933056	"make
-5.933056	"makes
-5.933056	"man,"
-5.933056	"manifestation.")
-5.933056	"manner,"
-5.518083	"many
-5.933056	"marketing"
-5.933056	"marriage
-5.933056	"master
-5.933056	"matter,"
-5.401577	"may
-5.933056	"me
-5.933056	"meaning
-5.933056	"means
-5.933056	"medium
-5.933056	"member
-5.933056	"methane
-5.933056	"methods"
-5.933056	"micro-internal
-5.933056	"middling
-5.518083	"might
-5.933056	"military
-5.933056	"militiamen"
-5.933056	"milk
-5.933056	"mine,
-5.933056	"miracle
-5.933056	"mirror
-5.933056	"mobility
-5.933056	"modernist"
-5.933056	"modernize"
-5.933056	"modest
-5.933056	"modest"
-5.933056	"modestly,"
-5.933056	"moldy
-5.933056	"molten
-5.677783	"money
-5.933056	"monkey
-5.169628	"more
-5.309807	"most
-5.677783	"mostly
-5.933056	"moth-eaten"
-5.933056	"mourning
-5.677783	"moved
-5.933056	"movement"
-5.933056	"movies
-5.677783	"much
-5.933056	"mujahedeen
-5.933056	"mujahideen
-5.401577	"multiple
-5.933056	"multipolar
-5.933056	"multitask"
-5.933056	"murder
-5.933056	"mutually
-5.063824	"my
-5.933056	"myths
-5.677783	"nagging"
-5.933056	"narishkayt."
-5.933056	"nation
-5.933056	"national
-5.677783	"natural
-5.933056	"naturally
-5.933056	"nay"
-5.933056	"near
-5.933056	"negotiate"
-5.933056	"neither
-5.933056	"neo-Arab"
-5.933056	"neo-classical"
-5.677783	"never
-5.401577	"new
-5.933056	"new,
-5.933056	"news"
-5.933056	"nine
-5.401577	"no
-5.518083	"no"
-5.677783	"nobody
-5.933056	"non-Christian,"
-5.933056	"nonskeptical
-5.933056	"noodles"
-5.677783	"normal"
-5.933056	"normal."
-5.933056	"norms"
-4.723541	"not
-5.677783	"nothing
-5.933056	"novel,
-5.933056	"novelist"
-5.933056	"now"
-5.677783	"nuance."
-5.933056	"o"
-5.933056	"obscene,
-5.933056	"occurrence."
-5.933056	"odor
-5.518083	"of
-5.933056	"off-putting"
-5.933056	"off-the-books
-5.933056	"offender"
-5.677783	"offered
-5.933056	"offset"
-5.518083	"old
-5.518083	"on
-5.933056	"once"
-4.978813	"one
-5.933056	"ongoing,"
-5.677783	"only
-5.677783	"open
-5.933056	"opening
-5.933056	"operational
-5.933056	"optimal
-5.933056	"optional"
-5.933056	"or
-5.933056	"orang
-5.933056	"organic"
-5.933056	"organizational
-5.933056	"orneriness"
-5.933056	"orthopedic
-5.933056	"other
-5.933056	"other-oriented"
-5.063824	"our
-5.518083	"out
-5.677783	"outstanding
-5.933056	"over
-5.933056	"over-rated"
-5.933056	"overbid"
-5.933056	"overhearing"
-5.933056	"overly
-5.933056	"oversight."
-5.933056	"overt
-5.933056	"owned
-5.933056	"pacing
-5.933056	"pack"
-5.933056	"packet
-5.933056	"paid
-5.933056	"pain
-5.933056	"paradise"
-5.933056	"parking
-5.933056	"parsimonious
-5.933056	"part
-5.933056	"participants"
-5.933056	"participating
-5.933056	"particularly
-5.401577	"parties
-5.933056	"partners."
-5.933056	"passionate."
-5.933056	"past
-5.401577	"pay
-5.933056	"pay-for-failure."
-5.933056	"pay-go"
-5.933056	"pay-go,"
-5.933056	"pen
-5.933056	"penthouse"
-5.309807	"people
-5.677783	"people's
-5.933056	"per
-5.677783	"perfect
-5.933056	"perhaps
-5.933056	"peril"
-5.677783	"person
-5.933056	"personal,"
-5.933056	"pets"
-5.933056	"phainein,"
-5.933056	"phased
-5.933056	"phenomenal,"
-5.933056	"philanthropic"
-5.933056	"phony
-5.933056	"piano
-5.933056	"picnics"
-5.933056	"pilgrimage
-5.401577	"pink
-5.933056	"pits"
-5.933056	"platform
-5.933056	"play
-5.933056	"play"
-5.933056	"players"
-5.933056	"playing
-5.933056	"pleasantly
-5.933056	"plutocrats"
-5.933056	"pointed
-5.933056	"poisoning"
-5.677783	"poor
-5.933056	"popular
-5.933056	"porn"
-5.933056	"poses
-5.677783	"post-A.P."
-5.933056	"power
-5.933056	"pragmatism"
-5.933056	"pre-disease"
-5.933056	"precaution,"
-5.933056	"precisely
-5.933056	"prejudge"
-5.933056	"premier
-5.933056	"premium
-5.933056	"prepare
-5.933056	"prepared
-5.933056	"preservation
-5.933056	"president
-5.933056	"presidential
-5.933056	"pretty
-5.933056	"previous
-5.933056	"pricing
-5.933056	"primal,
-5.933056	"primarily
-5.933056	"privatize."
-5.677783	"probably
-5.933056	"problematic
-5.677783	"problems,"
-5.933056	"progression
-5.933056	"promote
-5.933056	"proportionality
-5.933056	"protect"
-5.933056	"proved
-5.933056	"provide
-5.933056	"provides
-5.933056	"providing
-5.933056	"psychological
-5.933056	"public
-5.933056	"puffin
-5.933056	"pump
-5.933056	"pure
-5.401577	"put
-5.401577	"quite
-5.933056	"rabid
-5.933056	"ran
-5.933056	"rant"
-5.933056	"re-engaged
-5.933056	"reading"
-5.933056	"ready
-5.401577	"real
-5.933056	"real"
-5.933056	"realistic"
-5.518083	"really
-5.933056	"really"
-5.933056	"reasonably
-5.933056	"recklessness
-5.933056	"reclassified"
-5.933056	"recruiting
-5.933056	"recycled"
-5.933056	"redskins"
-5.933056	"reform"
-5.933056	"reforms"
-5.933056	"refrained
-5.933056	"refusal
-5.933056	"regular
-5.933056	"regulated,
-5.933056	"rein
-5.933056	"rejected
-5.933056	"rejects
-5.933056	"relating
-5.933056	"relative."
-5.933056	"relatively
-5.933056	"reluctantly"
-5.933056	"relying
-5.933056	"remain
-5.933056	"remains
-5.933056	"remarkable
-5.933056	"reopening
-5.933056	"replace
-5.933056	"reproductive"
-5.933056	"reptilian"
-5.933056	"repudiates
-5.933056	"require
-5.933056	"research
-5.933056	"resemblance
-5.933056	"reserves
-5.933056	"rethink."
-5.933056	"retiring
-5.933056	"retributive
-5.933056	"reversal"
-5.933056	"revocation"
-5.933056	"revolution"
-5.933056	"rice,"
-5.933056	"richly
-5.933056	"ridiculous,
-5.933056	"ridiculously
-5.933056	"riding
-5.677783	"right
-5.677783	"rise
-5.933056	"risky
-5.933056	"rival
-5.933056	"roach-challenged
-5.933056	"road
-5.933056	"roam."
-5.933056	"rock-hard
-5.933056	"romance
-5.933056	"roughly
-5.933056	"rugged
-5.677783	"run
-5.518083	"running
-5.933056	"rustock,"
-5.933056	"s"
-5.933056	"safe
-5.933056	"sailing
-5.933056	"sales
-5.933056	"sanctimonious
-5.933056	"sans
-5.933056	"saturnalia
-5.933056	"save"
-5.933056	"saved"
-5.933056	"savoring
-5.933056	"saying
-5.933056	"schwombat,"
-5.933056	"screen."
-5.933056	"screens."
-5.933056	"second
-5.933056	"secret
-5.933056	"secure
-5.933056	"security
-5.933056	"see
-5.933056	"seemed
-5.518083	"seems
-5.933056	"seen
-5.677783	"selective
-5.677783	"self-criticism"
-5.933056	"self-medication"
-5.933056	"selfish."
-5.933056	"sell
-5.933056	"selling"
-5.933056	"selves,"
-5.933056	"semi-defense"
-5.933056	"senior
-5.933056	"serious
-5.518083	"several
-5.933056	"severe
-5.933056	"sex"
-5.933056	"shadow
-5.677783	"shall
-5.933056	"shallow,
-5.933056	"shame
-5.933056	"sharply
-5.933056	"she
-5.677783	"shop
-5.933056	"shopping
-5.933056	"shortly."
-5.518083	"should
-5.933056	"shush
-5.933056	"sick
-5.933056	"sign"
-5.677783	"signaled
-5.933056	"signature
-5.518083	"significant
-5.933056	"significantly
-5.933056	"sill."
-5.933056	"silver
-5.677783	"simple
-5.933056	"simply
-5.933056	"sing,"
-5.933056	"single
-5.933056	"single,"
-5.933056	"six-packs"
-5.933056	"skater"
-5.933056	"skirted
-5.933056	"skittering,"
-5.933056	"sky
-5.933056	"slash
-5.677783	"sleep
-5.933056	"sleepwalkers,"
-5.933056	"slept
-5.933056	"slight
-5.933056	"slow,"
-5.933056	"small
-5.933056	"small,
-5.933056	"small-town
-5.933056	"smaller
-5.933056	"smart
-5.933056	"smartest
-5.933056	"smells
-5.933056	"smelly
-5.933056	"smoking
-5.933056	"sniper
-5.234086	"so
-5.933056	"sobering."
-5.677783	"social
-5.933056	"socially
-5.933056	"socks,
-5.933056	"soft
-5.933056	"soldiered
-5.169628	"some
-5.933056	"somehow
-5.933056	"something
-5.933056	"sometimes
-5.933056	"somewhat
-5.933056	"speak
-5.677783	"special
-5.933056	"specific
-5.933056	"speed
-5.933056	"spending
-5.933056	"spends
-5.933056	"spirit,"
-5.933056	"splashing
-5.933056	"spokesmodels"
-5.933056	"stable."
-5.933056	"staff
-5.933056	"staggeringly
-5.933056	"standing
-5.933056	"star
-5.933056	"state
-5.933056	"steezy"
-5.933056	"stepped
-5.933056	"stick
-5.933056	"still"
-5.677783	"sting
-5.933056	"stodgy"
-5.933056	"stop"
-5.933056	"straightened
-5.933056	"strategy
-5.933056	"street
-5.933056	"strong
-5.933056	"structural
-5.933056	"struggled
-5.933056	"student-athletes."
-5.933056	"study
-5.933056	"stumble-bumbling"
-5.933056	"subjective
-5.677783	"substantial
-5.933056	"substantive
-5.933056	"such
-5.933056	"suggest
-5.933056	"super
-5.933056	"superhero,"
-5.933056	"support
-5.933056	"supports
-5.933056	"surf
-5.401577	"surge"
-5.933056	"surge,"
-5.933056	"surprise
-5.933056	"surreal
-5.933056	"suspicious
-5.933056	"swamp
-5.933056	"sweeping
-5.933056	"symbolic
-5.933056	"sympathetic
-5.933056	"synchronicity,"
-5.933056	"systematic
-5.933056	"systematically
-5.933056	"tacit
-5.933056	"tacky."
-5.309807	"take
-5.933056	"taken
-5.933056	"taken,"
-5.933056	"talking
-5.933056	"tapori,"
-5.933056	"taunting
-5.933056	"tax
-5.933056	"taxonomy
-5.933056	"teach"
-5.933056	"technologically
-5.933056	"telling
-5.933056	"temp
-5.933056	"tend
-5.933056	"tendency
-5.933056	"tens
-5.933056	"terrible
-5.933056	"terribly
-5.933056	"terroir"
-5.933056	"terrorists
-5.933056	"textual
-5.518083	"than
-5.933056	"thank-you
-4.610837	"that
-5.518083	"that's
-3.858971	"the
-5.677783	"theater
-5.933056	"theatrical
-5.518083	"their
-5.677783	"their"
-5.677783	"then
-5.933056	"theophanies,"
-5.933056	"theos"
-5.933056	"theos,"
-5.677783	"therapy"
-4.94183	"there
-5.169628	"there's
-5.169628	"they
-5.933056	"they"
-5.234086	"they're
-5.933056	"things
-5.933056	"think
-5.933056	"third
-5.309807	"this
-5.933056	"those
-5.933056	"though
-5.933056	"threatening
-5.401577	"three
-5.933056	"three-packs")
-5.933056	"thumpin'
-5.933056	"time
-5.401577	"tiny,
-5.933056	"tipsters"
-4.4252	"to
-5.518083	"too
-5.933056	"took
-5.933056	"top
-5.933056	"total
-5.933056	"totalitarian"
-5.309807	"totally
-5.933056	"tough
-5.933056	"tourism
-5.933056	"tourist
-5.933056	"toys"
-5.933056	"trade
-5.933056	"tradition
-5.933056	"trailers
-5.933056	"traitor
-5.933056	"treat
-5.933056	"trial"
-5.933056	"trimates,"
-5.933056	"triumph
-5.933056	"true"
-5.933056	"trust"
-5.933056	"trustworthy."
-5.933056	"try
-5.677783	"trying
-5.933056	"turn
-5.401577	"two
-5.933056	"typically
-5.933056	"unacceptable"
-5.933056	"undaunted
-5.933056	"under-promise
-5.933056	"undercurrents"
-5.933056	"underrepresented
-5.933056	"understand
-5.933056	"understands
-5.933056	"undignified
-5.933056	"une
-5.933056	"unfortunately,
-5.933056	"unfounded
-5.933056	"unimpeachable
-5.933056	"unit
-5.933056	"unity
-5.933056	"universal
-5.933056	"unless
-5.933056	"unlike
-5.933056	"unperformable"
-5.933056	"unrealized
-5.933056	"untrussed,
-5.933056	"unwise"
-5.933056	"upspending":
-5.677783	"urgently"
-5.933056	"us,"
-5.933056	"used
-5.933056	"using
-5.933056	"usually
-5.933056	"utterly
-5.677783	"valuation-motivated
-5.933056	"vehemently
-5.933056	"veranda."
-4.876151	"very
-5.933056	"viceroy,"
-5.933056	"victory"
-5.933056	"video-game-excited
-5.933056	"violence
-5.933056	"virtual
-5.933056	"voluntarily
-5.933056	"voodoo
-5.677783	"walk
-5.933056	"wall"
-5.933056	"want
-5.933056	"wants
-5.019242	"was
-5.933056	"was,
-5.933056	"water";
-5.933056	"way
-4.627705	"we
-5.677783	"we'll
-5.518083	"we're
-5.933056	"we've
-5.933056	"we,"
-5.933056	"weapons"
-5.933056	"weight
-5.933056	"well-prepared,
-5.933056	"went
-5.518083	"were
-5.169628	"what
-5.113512	"when
-5.933056	"whenever
-5.933056	"where,
-5.933056	"whereas
-5.933056	"whether
-5.234086	"which
-5.933056	"white
-5.309807	"who
-5.933056	"whoever
-5.933056	"wholeness"
-5.933056	"why
-5.933056	"why"
-5.933056	"wife-ish,"
-5.677783	"wiki"
-5.933056	"wild
-5.063824	"will
-5.933056	"win
-5.933056	"win-win"
-5.933056	"winning."
-5.234086	"with
-5.677783	"without
-5.933056	"wolves"
-5.933056	"wombat"
-5.933056	"won't
-5.933056	"wonders"
-5.933056	"word
-5.933056	"worked
-5.933056	"working
-5.933056	"works
-5.933056	"world
-5.518083	"would
-5.401577	"writer's
-5.933056	"writing
-5.933056	"wrong
-5.933056	"wrong"
-5.933056	"yeah,
-5.933056	"yes"
-4.793177	"you
-5.933056	"you'd
-5.677783	"you're
-5.677783	"your
-5.933056	"youth
-5.677783	"zero
-5.933056	"zip-tie"
-5.933056	"zucchini."
-5.518083	#
-5.933056	#)
-5.933056	#21"
-5.933056	#5B
-5.933056	#6A
-5.933056	#A-3H
-5.933056	$
-5.933056	$$$$;
-5.518083	$$$;
-5.933056	$$;
-5.677783	$(6$)BLUMENTHAL--Martin
-5.518083	$(6$)BLUMENTHAL--Martin.
-5.933056	$(6$)COHEN--Dorothy,
-5.933056	$(6$)FISCH--Dr.
-5.933056	$(6$)FRIEDMAN--Rodney
-5.933056	$(6$)GRECO--Gabriel
-5.933056	$(6$)HIDARY--Mariel,
-5.933056	$(6$)KATZ--Ira,
-5.933056	$(6$)KATZ--Ira.
-5.933056	$(6$)KOHN--Prof.
-5.933056	$(6$)KOLLEK--Teddy
-5.677783	$(6$)KOLLEK--Teddy.
-5.933056	$(6$)KOLLEK--Theodor
-5.933056	$(6$)KRESTON--Martin
-5.933056	$(6$)KRESTON--Martin.
-5.933056	$(6$)MANHEIMER
-5.933056	$(6$)O'NEILL--Trevor.
-5.933056	$(6$)OLTARSH--Valerie
-5.933056	$(6$)OLTARSH--Valerie,
-5.933056	$(6$)OLTARSH--Valerie.
-5.933056	$(6$)ONEILL--Trevor,
-5.933056	$(6$)PARKER--Jack,
-5.401577	$(6$)PARKER--Jack.
-5.933056	$(6$)ROSENBERG--Earl,
-5.309807	$(6$)SCHMERTZ--Herman.
-5.933056	$(6$)STRAUSS--Robert
-5.933056	$(6$)SUNSHINE
-5.933056	$(6$)SUNSHINE--Abraham
-5.677783	$(6$)SUNSHINE--Abraham,
-5.933056	$(6$)SZARKOWSKI--Jill.
-5.677783	$(6$)WALLACH--Ira
-5.677783	$(6$)van
-4.303646	$1
-5.933056	$1,
-5.063824	$1,000
-5.933056	$1,000-a-head
-5.933056	$1,000-per-person
-5.401577	$1,000.
-5.933056	$1,030;
-5.933056	$1,085,148.71
-5.933056	$1,100
-5.933056	$1,150
-5.933056	$1,173
-5.933056	$1,199;
-5.677783	$1,200
-5.933056	$1,200;
-5.933056	$1,205,
-5.933056	$1,256
-5.933056	$1,310,
-5.933056	$1,350
-5.933056	$1,358
-5.933056	$1,374
-5.933056	$1,395,000
-5.933056	$1,400
-5.933056	$1,412
-5.933056	$1,528,
-5.933056	$1,586;
-5.933056	$1,587.
-5.933056	$1,599.
-5.933056	$1,600
-5.933056	$1,650,000
-5.933056	$1,672
-5.933056	$1,729,
-5.933056	$1,736
-5.933056	$1,749
-5.933056	$1,799
-5.933056	$1,800.
-5.933056	$1,838.78
-5.677783	$1.
-5.933056	$1.01
-5.933056	$1.02
-5.677783	$1.025
-5.933056	$1.04
-5.933056	$1.05
-5.933056	$1.06.
-5.933056	$1.07
-5.933056	$1.077
-5.933056	$1.088
-5.933056	$1.1
-5.933056	$1.115
-5.933056	$1.12
-5.677783	$1.15
-5.933056	$1.18
-4.682636	$1.2
-5.677783	$1.25
-5.933056	$1.285
-5.401577	$1.3
-5.933056	$1.31,
-5.933056	$1.3198
-5.933056	$1.325
-5.933056	$1.3272,
-5.401577	$1.34
-5.933056	$1.37
-5.933056	$1.38
-5.933056	$1.39
-5.933056	$1.395
-5.933056	$1.399
-5.401577	$1.4
-5.933056	$1.40
-5.933056	$1.45
-4.94183	$1.5
-5.933056	$1.50
-5.933056	$1.50.
-5.933056	$1.52
-5.518083	$1.6
-5.677783	$1.65
-5.933056	$1.65,"
-5.401577	$1.7
-5.933056	$1.72
-5.933056	$1.79
-5.677783	$1.8
-5.933056	$1.89
-5.677783	$1.9
-5.933056	$1.9586.
-5.933056	$1.9721,
-4.31188	$10
-5.677783	$10,
-4.819113	$10,000
-5.677783	$10,000.
-4.594599	$10.
-5.933056	$10.35
-5.933056	$10.4
-5.933056	$10.45.
-5.401577	$10.5
-5.933056	$10.50
-5.933056	$10.50.
-5.933056	$10.65
-5.933056	$10.70
-5.933056	$10.75.
-5.933056	$10.76
-5.933056	$10.9
-5.677783	$10.95
-5.933056	$10.95.)
-4.414542	$100
-4.876151	$100,000
-5.933056	$100,000,
-5.933056	$100-plus
-5.677783	$100.
-5.933056	$101.
-5.933056	$102,000
-5.933056	$103
-5.518083	$105
-5.933056	$107
-5.933056	$108.8
-5.933056	$109
-5.234086	$10;
-5.309807	$11
-5.933056	$11,055;
-5.933056	$11,300
-5.933056	$11,555,120
-5.933056	$11.2
-5.933056	$11.3
-5.933056	$11.5
-5.933056	$11.99,
-5.933056	$11.99.
-5.677783	$110
-5.933056	$113,000,
-5.518083	$114
-5.677783	$115
-5.933056	$115,000
-5.933056	$116.
-5.933056	$116.8
-5.933056	$117
-5.933056	$118
-5.933056	$118,000
-4.663543	$12
-5.933056	$12,
-5.677783	$12,000
-5.933056	$12,000,
-5.933056	$12,516;
-5.933056	$12-an-hour
-5.309807	$12.
-5.933056	$12.)
-5.933056	$12.5
-5.677783	$12.95
-5.677783	$12.95.
-5.933056	$12.95.)
-5.933056	$12.95;
-5.933056	$12.99,
-5.677783	$12.99.)
-5.677783	$120
-5.933056	$120,000
-5.933056	$121
-5.933056	$121,470
-5.933056	$123
-5.677783	$125
-5.933056	$125,
-5.933056	$125,000.
-5.933056	$125:
-5.677783	$126
-5.933056	$127
-5.933056	$127,000
-5.933056	$129
-5.933056	$12:
-5.309807	$12;
-5.309807	$13
-5.677783	$13.
-5.677783	$13.)
-5.933056	$13.50.
-5.933056	$13.60
-5.933056	$13.7
-5.933056	$13.95
-5.518083	$13.95.)
-5.933056	$13.99.
-5.933056	$13.99.)
-5.933056	$131/sq.
-5.933056	$132,000.
-5.933056	$134
-5.933056	$134,000
-5.677783	$135
-5.933056	$135,000
-5.933056	$135;
-5.933056	$137
-5.933056	$137,000,
-5.933056	$137,700
-5.518083	$139
-5.933056	$139.5
-5.677783	$13;
-5.063824	$14
-5.933056	$14)
-5.933056	$14,092;
-5.518083	$14.
-5.401577	$14.)
-5.933056	$14.45.
-5.933056	$14.5
-5.933056	$14.95
-5.933056	$14.95)
-5.933056	$14.95,
-5.234086	$14.95.)
-5.933056	$14.99,
-5.933056	$140
-5.933056	$140,000
-5.933056	$141
-5.933056	$142
-5.933056	$145
-5.933056	$145,833
-5.933056	$145;
-5.933056	$149
-5.933056	$14;
-4.682636	$15
-5.518083	$15,
-5.933056	$15,000
-5.933056	$15,000,
-5.933056	$15,000.
-5.933056	$15,500.
-5.933056	$15,907;
-4.793177	$15.
-5.401577	$15.)
-5.933056	$15.5
-5.933056	$15.50
-5.933056	$15.95
-5.933056	$15.99.)
-4.876151	$150
-5.933056	$150,
-5.401577	$150,000
-5.933056	$150,000,
-5.933056	$150,000.
-5.933056	$152
-5.518083	$155
-5.933056	$158
-5.933056	$159
-5.933056	$159,900
-5.019242	$15;
-4.819113	$16
-5.933056	$16,000
-5.933056	$16.
-5.677783	$16.)
-5.933056	$16.50
-5.933056	$16.99
-5.401577	$160
-5.933056	$165
-5.677783	$165,200
-5.933056	$169,
-5.933056	$169,900,
-5.677783	$17
-5.933056	$17,000
-5.677783	$17.
-5.933056	$17.04.
-5.933056	$17.5
-5.401577	$170
-5.933056	$175
-5.933056	$175,000
-5.933056	$175,100;
-5.933056	$175.
-5.933056	$176
-5.933056	$179,000
-5.933056	$179;
-5.063824	$18
-5.933056	$18,
-5.933056	$18,400
-5.933056	$18,500.
-5.933056	$18,735;
-5.933056	$18-an-hour
-5.401577	$18.
-5.933056	$18.)
-5.933056	$18.60
-5.933056	$18.817
-5.933056	$18.95.)
-5.933056	$180,
-5.933056	$180,500
-5.933056	$183
-5.933056	$183,000
-5.933056	$183.3
-5.933056	$185;
-5.933056	$189,000.
-5.677783	$18;
-5.309807	$19
-5.677783	$19.3
-5.933056	$19.50
-5.933056	$19.95)
-5.401577	$19.95.)
-5.933056	$19.98,
-5.933056	$19.99
-5.518083	$190
-5.933056	$193
-5.933056	$193.21
-5.677783	$195
-5.933056	$195.
-5.933056	$197,500,
-5.933056	$199,000
-5.933056	$1;
-4.521436	$2
-5.169628	$2,000
-5.933056	$2,000,
-5.933056	$2,000.
-5.933056	$2,089;
-5.933056	$2,112,500
-5.933056	$2,200,
-5.933056	$2,230.
-5.933056	$2,374;
-5.933056	$2,393;
-5.113512	$2,500
-5.933056	$2,500;
-5.933056	$2,588;
-5.933056	$2,600;
-5.933056	$2,700,
-5.933056	$2,704.84).
-5.933056	$2,718;
-5.933056	$2,800,
-5.933056	$2,800;
-5.933056	$2,844.
-5.933056	$2,900
-5.933056	$2.
-5.933056	$2.06
-5.677783	$2.1
-5.933056	$2.10
-5.933056	$2.175
-5.933056	$2.2
-5.933056	$2.295
-5.309807	$2.3
-5.933056	$2.32
-5.933056	$2.34
-5.401577	$2.4
-5.933056	$2.40
-5.933056	$2.44
-5.309807	$2.5
-5.933056	$2.50
-5.169628	$2.6
-5.933056	$2.7
-5.933056	$2.73,
-5.677783	$2.8
-5.933056	$2.9
-5.933056	$2.95
-5.933056	$2.956
-5.677783	$2.995
-4.404139	$20
-5.309807	$20,
-4.978813	$20,000
-5.933056	$20,000.
-5.933056	$20,400
-5.933056	$20,885,
-4.90775	$20.
-5.933056	$20.)
-5.933056	$20.017
-5.933056	$20.97
-4.549241	$200
-5.234086	$200,000
-5.933056	$200,000,
-5.933056	$200.
-5.933056	$202,500
-5.933056	$203,000;
-5.933056	$204
-5.933056	$205,000,
-5.113512	$20;
-5.677783	$20s
-5.518083	$21
-5.933056	$21,000
-5.933056	$21,695;
-5.933056	$21,761;
-5.933056	$21.95,
-5.933056	$21.95.
-5.518083	$21.95.)
-4.793177	$210
-5.933056	$210;
-5.933056	$211
-5.933056	$212,100.
-5.933056	$213
-5.933056	$218
-5.933056	$219,900
-5.933056	$219,900,
-5.677783	$21;
-5.401577	$22
-5.518083	$22.
-5.933056	$22.)
-5.933056	$22.95.
-5.933056	$220
-5.933056	$220,000
-5.933056	$224
-5.933056	$225,000
-5.933056	$225,000.
-5.933056	$225;
-5.933056	$228
-5.933056	$229,900
-5.933056	$22;
-5.401577	$23
-5.933056	$23,000
-5.933056	$23.
-5.933056	$23.34
-5.933056	$23.95.
-5.309807	$23.95.)
-5.933056	$23.99.
-5.518083	$230
-5.933056	$230,
-5.933056	$234
-5.933056	$235,000,
-5.518083	$24
-5.933056	$24,
-5.677783	$24,000
-5.933056	$24,257,
-5.933056	$24,500
-5.933056	$24,500,000
-5.933056	$24.
-5.677783	$24.)
-5.401577	$24.95.
-5.933056	$24.99.)
-5.933056	$240,000
-5.933056	$243,820.
-5.933056	$244
-5.933056	$245
-5.933056	$245.98
-5.933056	$245;
-5.677783	$248
-5.933056	$249,000.
-5.933056	$249,900
-5.933056	$249,900,
-5.933056	$249.99
-4.627705	$25
-5.933056	$25,
-4.768703	$25,000
-4.876151	$25.
-5.401577	$25.)
-5.933056	$25.3
-5.677783	$25.95.
-5.677783	$25.95.)
-5.169628	$250
-5.933056	$250,
-5.113512	$250,000
-5.933056	$250,000,
-5.933056	$250.
-5.933056	$251,
-5.933056	$255
-5.933056	$255,000
-5.933056	$257;
-5.933056	$258
-5.933056	$259,000
-5.933056	$259,000.
-5.677783	$25;
-5.933056	$26
-5.677783	$26.
-5.677783	$26.)
-5.933056	$26.75
-5.518083	$26.95.)
-5.933056	$26.99.)
-5.677783	$260
-5.933056	$260,000.
-5.933056	$260.
-5.933056	$262
-5.933056	$263,000
-5.933056	$265
-5.933056	$265,000
-5.518083	$27
-5.518083	$27,000
-5.933056	$27,084;
-5.401577	$27.
-5.401577	$27.)
-5.933056	$27.33
-5.933056	$27.49
-5.677783	$27.50.)
-5.518083	$27.95.
-5.401577	$27.95.)
-5.933056	$27.99
-5.677783	$27.99.)
-5.933056	$27/sq.
-5.933056	$270
-5.933056	$270,
-5.933056	$272,450.
-5.677783	$275
-5.933056	$275,708
-5.169628	$28
-5.933056	$28,000
-5.677783	$28.
-5.933056	$28.)
-5.933056	$28.95,
-5.518083	$28.95.)
-5.933056	$28.98,
-5.401577	$280
-5.933056	$284,000."
-5.933056	$284.36
-5.677783	$285,000
-5.933056	$289,900.
-5.933056	$29
-5.933056	$29.
-5.933056	$29.95
-5.933056	$29.95)
-5.933056	$29.95.
-5.677783	$29.95.)
-5.933056	$29.95;
-5.933056	$29.99
-5.933056	$292,500
-5.933056	$295
-5.933056	$295,000
-5.933056	$295.
-5.933056	$298,000.
-5.677783	$299
-5.933056	$299,000,
-5.933056	$299,000.
-5.518083	$2;
-4.436126	$3
-5.933056	$3,
-5.309807	$3,000
-5.933056	$3,000.
-5.933056	$3,000;
-5.933056	$3,152;
-5.933056	$3,400,769
-5.677783	$3,500
-5.677783	$3,500,
-5.933056	$3,500;
-5.677783	$3,515
-5.933056	$3,600.
-5.933056	$3,662;
-5.677783	$3,693,101.49
-5.933056	$3,796;
-5.518083	$3,803,895.99
-5.933056	$3,879,
-5.933056	$3,975;
-5.933056	$3-a-barrel
-5.234086	$3.
-5.933056	$3.1
-5.677783	$3.15
-5.518083	$3.2
-5.933056	$3.27
-5.933056	$3.29
-5.677783	$3.3
-5.933056	$3.4
-5.309807	$3.5
-5.933056	$3.50
-5.933056	$3.54,
-5.933056	$3.6
-5.933056	$3.68
-5.933056	$3.69
-5.933056	$3.7
-5.933056	$3.74
-5.933056	$3.79
-5.933056	$3.8
-5.933056	$3.80
-5.933056	$3.805
-5.933056	$3.87
-5.518083	$3.9
-5.933056	$3.98
-4.663543	$30
-5.518083	$30,
-5.677783	$30,000
-5.234086	$30.
-5.518083	$30.)
-4.846696	$300
-5.933056	$300)
-4.846696	$300,000
-5.933056	$300,000,"
-5.677783	$300,000.
-5.933056	$300.
-5.933056	$301
-5.933056	$304
-5.933056	$305
-5.933056	$307;
-5.677783	$30;
-5.677783	$30s.
-5.518083	$31
-5.933056	$31,000?")
-5.933056	$310
-5.933056	$314,000
-5.933056	$314,000,
-5.933056	$315;
-5.933056	$316,000,
-5.933056	$318;
-5.401577	$32
-5.933056	$32,
-5.933056	$32,000-a-year
-5.933056	$32,054,700
-5.933056	$32,500
-5.933056	$32.
-5.677783	$320
-5.677783	$325,000
-5.933056	$325,000,
-5.933056	$325,000.
-5.933056	$325,093.
-5.933056	$325.
-5.933056	$329,000
-5.933056	$329,900,
-5.518083	$33
-5.933056	$33,000
-5.933056	$33,000,
-5.933056	$33,000.
-5.933056	$33.5
-5.933056	$330
-5.933056	$330,000*
-5.933056	$330,000.
-5.933056	$335
-5.933056	$336
-5.933056	$337,000
-5.933056	$34,000
-5.933056	$34.
-5.933056	$34.97
-5.933056	$34.99
-5.933056	$340,000
-5.933056	$345
-5.019242	$35
-5.677783	$35,
-5.933056	$35,000
-5.933056	$35,000.
-5.309807	$35.
-5.933056	$35.)
-5.169628	$350
-5.518083	$350,000
-5.933056	$354,500
-5.933056	$355,000,
-5.933056	$357,500
-5.933056	$358).
-5.518083	$35;
-5.518083	$36
-5.933056	$36.50
-5.677783	$360,000
-5.933056	$365,000,
-5.933056	$369,000.
-5.677783	$37
-5.933056	$37,000
-5.933056	$37,000.
-5.933056	$37.50
-5.677783	$37.8
-5.933056	$370
-5.933056	$375,000
-5.933056	$375.
-5.401577	$38
-5.933056	$38,
-5.933056	$38.5
-5.933056	$38.50
-5.933056	$38.53
-5.933056	$380
-5.933056	$380,000
-5.933056	$380.5
-5.933056	$383.6
-5.933056	$385).
-5.677783	$385,000
-5.933056	$385.
-5.933056	$388
-5.933056	$388,700,
-5.933056	$389.
-5.677783	$39
-5.933056	$39,000
-5.933056	$39.95
-5.933056	$39.95,
-5.933056	$39.95.)
-5.933056	$39.99
-5.933056	$395
-5.933056	$395.
-5.933056	$399,
-5.309807	$3;
-4.94183	$4
-5.933056	$4,
-5.309807	$4,000
-5.933056	$4,000,
-5.933056	$4,000.
-5.933056	$4,153;
-5.933056	$4,182;
-5.677783	$4,302,646.29
-5.933056	$4,500
-5.677783	$4,513,938.29
-5.933056	$4,530;
-5.933056	$4,641,858.36
-5.677783	$4,647,966.83
-5.933056	$4,656
-5.518083	$4,697,117.83
-5.933056	$4,776,625.76
-5.933056	$4,868;
-5.933056	$4,905;
-5.933056	$4,989,000
-5.933056	$4,995
-5.677783	$4.
-5.933056	$4.05
-5.677783	$4.1
-5.933056	$4.15
-5.933056	$4.155
-5.677783	$4.2
-5.933056	$4.4
-5.933056	$4.49
-5.401577	$4.5
-5.933056	$4.50
-5.933056	$4.53
-5.933056	$4.95
-4.819113	$40
-5.933056	$40,
-5.309807	$40,000
-5.933056	$40,000,
-5.933056	$40,000.
-5.677783	$40.
-5.933056	$40.)
-5.019242	$400
-5.309807	$400,000
-5.933056	$400,000,
-5.933056	$400,000.
-5.933056	$406,366.
-5.933056	$408
-5.933056	$41
-5.933056	$41.07
-5.933056	$41.07,
-5.933056	$41.16
-5.933056	$410
-5.933056	$410,000,
-5.933056	$411
-5.677783	$412
-5.933056	$415,000
-5.933056	$419
-5.401577	$42
-5.933056	$42,
-5.933056	$42,000
-5.933056	$420,000
-5.933056	$420,000,
-5.933056	$422,000
-5.677783	$423
-5.933056	$425
-5.933056	$425,000,
-5.933056	$425,000.
-5.933056	$425;
-5.933056	$428,000.
-5.933056	$42;
-5.933056	$43.3
-5.933056	$430,000
-5.933056	$430.9
-5.933056	$437
-5.401577	$44
-5.933056	$44,
-5.933056	$44.
-5.933056	$440
-5.933056	$440,000.
-5.933056	$441
-5.933056	$445,000,
-5.933056	$447
-5.309807	$45
-5.933056	$45).
-5.309807	$45.
-5.933056	$45.)
-5.933056	$450
-5.677783	$450,000
-5.677783	$459,
-5.933056	$45;
-5.933056	$46
-5.933056	$460,000
-5.933056	$464,000
-5.933056	$468,000
-5.933056	$468,000.
-5.933056	$469,000.
-5.933056	$469,900.
-5.933056	$47
-5.933056	$470
-5.933056	$471,500,
-5.401577	$48
-5.677783	$48,000
-5.933056	$48.25
-5.933056	$489,
-5.933056	$489,000
-5.677783	$49
-5.933056	$49,000
-5.933056	$49.95
-5.933056	$490
-5.933056	$497,000
-5.234086	$4;
-4.610837	$5
-5.933056	$5)
-5.933056	$5).
-5.677783	$5,
-5.169628	$5,000
-5.933056	$5,367,663.05
-5.677783	$5,467,648.56
-5.933056	$5,500,
-5.933056	$5,500-per-month,
-5.933056	$5,595
-5.933056	$5,640
-5.933056	$5,685;
-5.677783	$5,782,266.54
-5.933056	$5,800,
-4.793177	$5.
-5.933056	$5.15
-5.933056	$5.20,
-5.933056	$5.3
-5.933056	$5.36
-5.933056	$5.4
-5.677783	$5.5
-5.518083	$5.7
-5.933056	$5.99
-4.578948	$50
-5.019242	$50,000
-5.933056	$50,000.
-5.933056	$50.
-4.723541	$500
-5.677783	$500,
-4.793177	$500,000
-5.677783	$500,000.
-5.677783	$500.
-5.933056	$509,000,
-5.518083	$51
-5.933056	$51,000
-5.933056	$515
-5.933056	$515,000
-5.933056	$52.36.
-5.933056	$52.8
-5.933056	$525
-5.933056	$53.4
-5.933056	$530
-5.933056	$540
-5.019242	$55
-5.677783	$55.
-5.933056	$555,000
-5.933056	$555,000,
-5.933056	$56,720
-5.933056	$56.50.
-5.933056	$569,000.
-5.933056	$57
-5.933056	$57,000
-5.933056	$57,496,
-5.933056	$57.5
-5.518083	$575
-5.518083	$575,000
-5.933056	$58
-5.933056	$58,000,
-5.933056	$58.25.
-5.933056	$58.32
-5.933056	$58.50.
-5.933056	$58.9
-5.933056	$580,000.
-5.933056	$585,000*
-5.933056	$59
-5.933056	$59.4
-5.933056	$598
-5.933056	$598,999.
-5.169628	$599,999
-5.933056	$599.99
-4.94183	$5;
-4.768703	$6
-5.933056	$6),
-5.677783	$6,000
-5.933056	$6,000,
-5.933056	$6,087
-5.933056	$6,219;
-5.933056	$6,357;
-5.933056	$6,509
-5.933056	$6,803;
-5.677783	$6.
-5.677783	$6.1
-5.677783	$6.2
-5.933056	$6.4
-5.677783	$6.50
-5.933056	$6.7
-5.933056	$6.99.)
-5.309807	$60
-5.677783	$60,
-5.933056	$60,000
-5.933056	$60,000,
-5.933056	$60,000.
-5.401577	$60.
-5.309807	$600
-5.113512	$600,000
-5.933056	$600.
-5.933056	$600.)
-5.677783	$603
-5.933056	$605,000
-5.933056	$606
-5.933056	$608
-5.933056	$611;
-5.933056	$618
-5.677783	$62
-5.933056	$625
-5.933056	$626
-5.933056	$63
-5.677783	$63.5
-5.933056	$630,000
-5.933056	$635,000
-5.401577	$64
-5.933056	$64.60
-5.933056	$648
-5.234086	$65
-5.933056	$65.
-5.933056	$65.42
-5.677783	$650
-5.933056	$650,000
-5.933056	$650,000,
-5.933056	$650,900
-5.933056	$65:
-5.933056	$66
-5.933056	$660
-5.933056	$665,000.
-5.933056	$666
-5.933056	$669,000
-5.677783	$67,000
-5.933056	$67,000,
-5.933056	$672
-5.933056	$675
-5.518083	$68
-5.933056	$68.
-5.933056	$680,
-5.933056	$69,
-5.933056	$69,804;
-5.933056	$69,900
-5.933056	$69,900,
-5.933056	$693
-5.933056	$695,
-5.933056	$696;
-5.933056	$699,000.
-5.401577	$6;
-4.723541	$7
-5.677783	$7).
-5.933056	$7,
-5.933056	$7,000
-5.933056	$7,000;
-5.933056	$7,111;
-5.933056	$7,199;
-5.933056	$7,200
-5.677783	$7.
-5.677783	$7.25
-5.933056	$7.27
-5.933056	$7.4
-5.677783	$7.50
-5.933056	$7.9
-5.933056	$7.95
-5.933056	$7.99,
-5.169628	$7.99.)
-5.234086	$70
-5.933056	$70,000
-5.234086	$700
-5.933056	$700,000
-5.933056	$700,000,
-5.677783	$700,000.
-5.933056	$700.
-5.933056	$716,125.
-5.933056	$72
-5.933056	$724,000
-5.933056	$725,000
-5.933056	$725,000.
-5.933056	$749,000.
-5.169628	$75
-5.933056	$75,
-5.933056	$75.
-5.933056	$750
-5.933056	$750,000
-5.401577	$750,000.
-5.933056	$753.
-5.933056	$774,
-5.933056	$774,900.
-5.677783	$78
-5.933056	$780
-5.933056	$787,
-5.933056	$788
-5.933056	$789,900
-5.933056	$79
-5.933056	$795,000
-5.933056	$799,000.
-5.309807	$7;
-4.90775	$8
-5.933056	$8),
-5.933056	$8,218.
-5.933056	$8,500
-5.933056	$8,534,829
-5.169628	$8.
-5.933056	$8.1
-5.933056	$8.14
-5.933056	$8.25
-5.401577	$8.3
-5.933056	$8.6
-5.933056	$8.75,
-5.933056	$8.92
-5.933056	$8.920
-5.933056	$8.95)
-5.677783	$8.95.)
-5.063824	$80
-5.933056	$80,
-5.933056	$80,000
-5.933056	$800
-5.518083	$800,000
-5.933056	$82
-5.933056	$82.
-5.933056	$820
-5.933056	$825,000,
-5.933056	$825,000.
-5.518083	$84
-5.933056	$84.8
-5.933056	$849,000
-5.677783	$85
-5.677783	$850
-5.933056	$850,
-5.933056	$858
-5.677783	$86
-5.933056	$87.5
-5.933056	$870,000
-5.677783	$873
-5.933056	$875
-5.933056	$875,000
-5.933056	$876
-5.933056	$879,000*
-5.933056	$879,000.
-5.518083	$88
-5.933056	$88.5
-5.933056	$88.50.
-5.518083	$89
-5.933056	$890
-5.169628	$899,999
-5.933056	$899,999.98,
-5.518083	$8;
-5.169628	$9
-5.933056	$9,
-5.933056	$9,000
-5.933056	$9,000,
-5.933056	$9,033;
-5.933056	$9,038;
-5.933056	$9,333;
-5.518083	$9.
-5.933056	$9.25
-5.933056	$9.3
-5.933056	$9.4
-5.933056	$9.45;
-5.933056	$9.47
-5.677783	$9.6
-5.933056	$9.75.
-5.933056	$9.8
-5.933056	$9.95
-5.933056	$9.99
-5.677783	$9.99.)
-5.518083	$90
-5.677783	$90,000
-5.933056	$90,000,
-5.933056	$90,000.
-5.933056	$90.)
-5.933056	$90.88
-5.933056	$900
-5.933056	$900,
-5.113512	$900,000
-5.933056	$900,000.
-5.933056	$906,
-5.933056	$910,000
-5.933056	$92
-5.933056	$92,000
-5.933056	$925,000
-5.933056	$940,000.
-5.933056	$95
-5.933056	$95.
-5.933056	$956,
-5.933056	$96,
-5.933056	$96.
-5.933056	$960,000
-5.933056	$960,000.
-5.933056	$964
-5.933056	$965
-5.933056	$965,000
-5.933056	$975,000.
-5.933056	$979,000
-5.933056	$98
-5.933056	$98.
-5.933056	$98.4
-5.933056	$985,000
-5.933056	$987
-5.933056	$989,000.
-5.518083	$99
-5.933056	$995
-5.933056	$999
-5.933056	$999,000
-5.933056	$9;
-5.933056	%
-3.619611	&
-5.677783	'
-5.677783	'02
-5.933056	'02;
-5.677783	'04,
-5.933056	'04.
-5.933056	'05,"
-5.933056	'06
-5.933056	'06,
-5.933056	'08
-5.933056	'25
-5.677783	'29
-5.677783	'30s
-5.677783	'30s,
-5.677783	'39
-5.677783	'40s
-5.309807	'40s,
-5.933056	'41
-5.933056	'46
-5.518083	'50s
-5.677783	'50s,
-5.933056	'50s,"
-5.933056	'50s-diner
-5.933056	'50s.
-5.933056	'51
-4.978813	'60s
-4.94183	'60s,
-5.518083	'60s.
-5.933056	'60s;
-5.933056	'64
-5.933056	'65
-5.234086	'70s
-5.933056	'70s"
-5.309807	'70s,
-5.933056	'79,
-5.518083	'80s
-5.401577	'80s,
-5.933056	'80s.
-5.933056	'85
-5.933056	'90
-5.677783	'90,
-5.401577	'90s
-5.677783	'90s,
-5.518083	'90s.
-5.933056	'90s."
-5.933056	'94;
-5.933056	'95;
-5.933056	'99,
-5.933056	'99;
-5.234086	'A
-5.933056	'ALTAR
-5.933056	'AN
-5.933056	'APOCALYPTO'
-5.933056	'AVENUE
-5.933056	'Ain't
-5.677783	'American
-5.933056	'Appassionata'
-5.401577	'Are
-5.933056	'Asian
-5.933056	'Athens-Sparta,'
-5.933056	'BABEL'
-5.933056	'BEAUTY
-5.933056	'BECOMING
-5.933056	'BIG
-5.933056	'BLACK
-5.933056	'BLOOD
-5.933056	'BOBBY'
-5.933056	'BORAT:
-5.933056	'BUTLEY'
-5.933056	'Back
-5.933056	'Barbie
-5.677783	'Be
-5.933056	'Been
-5.933056	'Big
-5.933056	'Blood
-5.933056	'Bobby'
-5.933056	'Botnet'
-5.933056	'Bout
-5.933056	'Boy,
-5.933056	'Burning
-5.933056	'But
-5.933056	'Buy
-5.933056	'CASINO
-5.933056	'CHARLOTTE'S
-5.933056	'CHICAGO'
-5.933056	'CHILDREN
-5.933056	'COMPANY'
-5.933056	'COPYING
-5.677783	'CSI'
-5.933056	'CURSE
-5.933056	'Can
-5.933056	'Cars'
-5.933056	'Chocolat'
-5.933056	'Classical,
-5.933056	'Coach,
-5.933056	'Code
-5.933056	'DAI
-5.933056	'DEATH
-5.933056	'DECK
-5.933056	'DEFAMATION
-5.933056	'DESIGN
-5.933056	'DHOOM
-5.677783	'DIE
-5.933056	'DJ
-5.933056	'Dancing
-5.933056	'De
-5.933056	'Death
-5.933056	'Did
-5.933056	'Divine
-5.933056	'Domenico
-5.309807	'Don't
-5.933056	'ERAGON'
-5.933056	'EVIL
-5.933056	'Ecotopia:
-5.933056	'Elect
-5.933056	'Em
-5.933056	'Everyday
-5.933056	'FLAGS
-5.933056	'FLANNEL
-5.933056	'FLUSHED
-5.933056	'FOR
-5.933056	'FORBIDDEN
-5.933056	'FRAGONARD
-5.933056	'Fahrenheit
-5.933056	'Family
-5.933056	'Feminism
-5.933056	'Fine,
-5.933056	'Flute'
-5.933056	'Fore
-5.401577	'Friday
-5.933056	'G.M.A.'
-5.933056	'GENE
-5.933056	'GLITTER
-5.933056	'GOLD,'
-5.933056	'GREENBELT
-5.933056	'GREY
-5.933056	'George
-5.933056	'God,
-5.933056	'Good
-5.933056	'Grease'
-5.933056	'HAIRSPRAY'
-5.933056	'HAPPY
-5.933056	'HIGH
-5.518083	'He's
-5.933056	'Hello,
-5.933056	'Help'
-5.933056	'Here
-5.309807	'Hey,
-5.933056	'Hitler,
-5.933056	'Honey,
-5.677783	'How
-4.645254	'I
-5.933056	'I'LL
-5.933056	'I'd
-5.518083	'I'll
-5.113512	'I'm
-5.933056	'I've
-5.933056	'IN
-5.933056	'INLAND
-5.933056	'Idomeneo'
-5.113512	'If
-5.169628	'Is
-5.933056	'It'
-5.401577	'It's
-5.933056	'JACQUES
-5.933056	'JERSEY
-5.933056	'JIM
-5.933056	'JO
-5.933056	'Jewish
-5.677783	'Just
-5.933056	'Keep
-5.933056	'Kiki
-5.933056	'LA
-5.933056	'LES
-5.933056	'LETTERS
-5.933056	'LITTLE
-5.933056	'LOUIS
-5.933056	'Las
-5.933056	'Last
-5.933056	'Laveranues,
-5.933056	'Legacies:
-5.309807	'Let's
-5.933056	'Letters
-5.933056	'Lolita'
-5.677783	'Long
-5.933056	'Look
-5.933056	'Looking
-5.933056	'Lord,
-5.933056	'Love'
-5.933056	'MAMMA
-5.933056	'MAN
-5.933056	'MARIE
-5.933056	'MARTIN
-5.933056	'MARY
-5.933056	'MEET
-5.933056	'MOSTLY
-5.933056	'MOZART
-5.677783	'MY
-5.933056	'Maccabees'
-5.933056	'Madame
-5.933056	'Made
-5.933056	'Make
-5.677783	'Man,
-5.933056	'Mary's
-5.933056	'Mom,
-5.933056	'Moonlight
-5.933056	'Movement'
-5.677783	'Mr.
-5.933056	'Museum'
-5.518083	'My
-5.933056	'NIGHT
-5.933056	'NO
-5.933056	'NOTES
-5.933056	'Night
-5.933056	'Nixonland:
-5.933056	'No
-5.401577	'No,
-5.677783	'Not
-5.677783	'Now
-5.933056	'Nutcrackers,'
-5.401577	'O.K.,
-5.933056	'ONE
-5.933056	'Of
-5.677783	'Oh
-5.113512	'Oh,
-5.933056	'Old
-5.933056	'Old'
-5.933056	'Our
-5.933056	'Our'
-5.933056	'PAN'S
-5.933056	'PERFUME:
-5.933056	'Parking
-5.933056	'Please,
-5.933056	'Pop
-5.933056	'Popetown'
-5.933056	'Put
-5.933056	'QUELQUES
-5.401577	'R'
-5.933056	'REGRETS
-5.933056	'RENT'
-5.933056	'ROCKY
-5.933056	'ROOM
-5.933056	'Reflections
-5.933056	'Renaud
-5.933056	'Richard,
-5.933056	'Rome.
-5.933056	'Run!
-5.933056	'SAUL
-5.933056	'SLAVA'S
-5.933056	'SPAMALOT'
-5.933056	'SPRING
-5.933056	'STRINGS'
-5.933056	'SUDDENLY
-5.933056	'Saturday
-5.933056	'See,
-5.933056	'Senator
-5.933056	'Shahnameh'
-5.933056	'Shahnameh.'
-5.677783	'She
-5.933056	'Should
-5.933056	'Shut
-5.933056	'Simply
-5.933056	'Snow
-5.933056	'Some
-5.933056	'Spanish
-5.933056	'Spider-Man
-5.933056	'Starry
-5.933056	'Stupid
-5.933056	'Sure,
-5.933056	'T
-5.933056	'TARGET
-5.933056	'TARZAN'
-4.56384	'THE
-5.933056	'TRANSLATIONS'
-5.933056	'TRUE
-5.933056	'TWO
-5.933056	'Take
-5.933056	'Tax
-5.933056	'That
-5.309807	'That's
-4.819113	'The
-5.933056	'There
-5.019242	'This
-5.933056	'Three
-5.933056	'Til
-5.933056	'Tony
-5.933056	'Tosca'
-5.933056	'Turn
-5.933056	'UNACCOMPANIED
-5.677783	'Ugly
-5.933056	'Uh
-5.933056	'Uh,
-5.933056	'Uncle
-5.933056	'VENUS'
-5.933056	'VOLVER'
-5.933056	'Vespro
-5.933056	'WE
-5.933056	'WICKED'
-5.933056	'Wait
-5.933056	'Waiting
-5.933056	'Waking
-5.019242	'We
-5.933056	'We'd
-5.933056	'We're
-5.401577	'We've
-5.933056	'Wedding
-5.518083	'Well,
-5.169628	'What
-5.933056	'What?'
-5.933056	'Whatever
-5.933056	'Whatever.'
-5.677783	'When
-5.677783	'Where
-5.933056	'Whiskey
-5.677783	'Who
-5.401577	'Why
-5.518083	'Wichcraft
-5.933056	'Wichcraft,
-5.933056	'World
-5.677783	'Would
-5.401577	'Wow,
-5.933056	'X-Hour
-5.933056	'Yo,
-5.063824	'You
-5.933056	'Zyzzyx
-5.933056	'a
-5.933056	'ah'
-5.933056	'animation'
-5.933056	'attorney-client
-5.933056	'awareness,'
-5.933056	'better,'
-5.933056	'bout
-5.933056	'boxes.'
-5.933056	'bribe,'
-5.933056	'broaden
-5.933056	'cause
-5.933056	'cultured.'
-5.933056	'distance'
-5.677783	'do
-5.933056	'e,'
-5.677783	'em,
-5.933056	'em.
-5.933056	'emerging
-5.933056	'exciting'
-5.933056	'faces,'
-5.933056	'find
-5.933056	'folks'
-5.933056	'food
-5.933056	'get
-5.933056	'hard
-5.933056	'ifs'
-5.933056	'it's
-5.677783	'just
-5.933056	'love
-5.933056	'male.'
-5.933056	'more
-5.401577	'museum'
-5.234086	'n
-5.169628	'n'
-5.677783	'no,'
-5.933056	'not
-5.933056	'offline,'
-5.933056	'ome"
-5.933056	'our
-5.933056	'peak'
-5.401577	'performing
-5.933056	'physical,'
-5.933056	'popping'
-5.933056	'range
-5.933056	'redshirted'
-5.933056	'resolute,'
-5.933056	'rock
-4.202274	's
-5.933056	's"
-5.063824	's,
-5.401577	's.
-5.933056	'scout
-5.933056	'selling
-5.933056	'technicals,'
-5.309807	'the
-5.933056	'the'
-5.933056	'theme
-5.933056	'this
-5.933056	'tis
-5.933056	'trying
-5.933056	'uh
-5.933056	'un-invent'
-5.933056	'white'
-5.933056	'who
-5.933056	'yst,'
-5.518083	(
-5.933056	("
-5.518083	("A
-5.933056	("Adaptation"),
-5.933056	("American?
-5.933056	("Basically
-5.933056	("Bore
-5.933056	("Bradley
-5.933056	("Casino
-5.933056	("Catherine
-5.933056	("Click");
-5.933056	("Cosmic
-5.933056	("Despite
-5.933056	("Diary
-5.933056	("Epiphany"
-5.933056	("Essays
-5.933056	("Every
-5.933056	("Everybody
-5.933056	("Excuse
-5.933056	("Fear
-5.933056	("Gadgie"
-5.933056	("Gerald
-5.933056	("Getting
-5.933056	("Great
-5.933056	("Have
-5.933056	("Hellboy,"
-5.933056	("Henry
-5.933056	("House
-5.234086	("I
-5.677783	("If
-5.677783	("It
-5.677783	("It's
-5.933056	("Janet
-5.933056	("Just
-5.933056	("Les
-5.933056	("McCleary
-5.933056	("Me
-5.933056	("Monk")
-5.933056	("Moulin
-5.677783	("My
-5.933056	("No,
-5.933056	("On
-5.933056	("One
-5.933056	("Open
-5.933056	("Ordinary
-5.933056	("Pardonez-moi,"
-5.933056	("Parpaillon,"
-5.933056	("Red-Letter
-5.933056	("Ruby")
-5.933056	("Spy
-5.933056	("Strange
-5.933056	("Take
-5.933056	("Talladega
-5.933056	("Tell
-5.933056	("That's
-4.94183	("The
-5.933056	("This
-5.933056	("Toby"),
-5.933056	("U
-5.933056	("U.S.
-5.933056	("Une
-5.933056	("Untitled,"
-5.933056	("Urinetown"),
-5.933056	("Wallace
-5.933056	("Weeks
-5.933056	("When
-5.933056	("Wicked,"
-5.677783	("You
-5.933056	("You're
-5.933056	("Your
-5.933056	("a
-5.933056	("barrel
-5.933056	("because
-5.933056	("being
-5.933056	("dialectical
-5.933056	("her
-5.933056	("more
-5.933056	("nullah,"
-5.933056	("start
-5.933056	("very,
-5.933056	("who
-5.933056	($1,195),
-5.933056	($10)
-5.933056	($10),
-5.933056	($10).
-5.933056	($10.75)
-5.933056	($10.95)
-5.933056	($100
-5.933056	($102).
-5.933056	($11).
-5.933056	($11.75
-5.933056	($11.95
-5.933056	($12),
-5.933056	($12).
-5.933056	($12;
-5.933056	($13,000)
-5.933056	($13,200)
-5.933056	($14.95)
-5.933056	($140)
-5.933056	($149
-5.933056	($16),
-5.933056	($168)
-5.933056	($17.95
-5.933056	($2
-5.933056	($2.90
-5.933056	($21
-5.933056	($21);
-5.933056	($22),
-5.933056	($24
-5.933056	($24)
-5.933056	($25)
-5.933056	($265).
-5.933056	($3.50)
-5.933056	($3.50),
-5.933056	($3.50).
-5.933056	($30)
-5.933056	($300
-5.933056	($34).
-5.933056	($369,
-5.933056	($395
-5.933056	($4
-5.677783	($4)
-5.933056	($4),
-5.933056	($4).
-5.933056	($4.7
-5.933056	($418
-5.933056	($420)
-5.933056	($446
-5.933056	($48).
-5.933056	($49
-5.933056	($498)
-5.933056	($5.25
-5.933056	($5.50),
-5.933056	($5.95
-5.933056	($698)
-5.933056	($7
-5.933056	($7)
-5.933056	($7.50
-5.933056	($7.75
-5.933056	($70
-5.933056	($70),
-5.933056	($78)
-5.933056	($8.50),
-5.677783	($8.75
-5.933056	($9
-5.933056	($9)
-5.933056	($9).
-5.933056	($9,940).
-5.933056	($90),
-5.933056	($90);
-5.933056	($900
-5.933056	('awar,
-5.677783	()
-5.677783	(*)
-5.933056	(.615,
-5.933056	(000
-5.677783	(1
-5.933056	(1,217
-5.933056	(1,662
-5.933056	(1,789),
-5.933056	(1,819
-5.933056	(1.95
-5.933056	(10
-5.933056	(10).
-5.234086	(10-2)
-5.933056	(10-3)
-5.677783	(10-3),
-5.933056	(10-3,
-5.933056	(10-4),
-5.933056	(10-5)
-4.90775	(10-6)
-5.933056	(10.4
-5.933056	(1001
-5.933056	(101
-5.933056	(104.8
-5.933056	(1050-700
-5.933056	(106
-5.933056	(10th
-5.677783	(11
-5.677783	(11)
-5.518083	(11-1)
-5.518083	(11-2)
-5.933056	(11-2),
-5.933056	(11-3)
-5.933056	(11-3,
-5.933056	(11-6)
-5.933056	(11.3
-5.933056	(11.9
-5.677783	(110
-5.933056	(11127
-5.933056	(1114
-5.933056	(11:30
-5.933056	(11th
-5.933056	(12
-5.677783	(12-0)
-5.518083	(12-1)
-5.933056	(12-1).
-5.933056	(12-1,
-5.309807	(12-4)
-5.677783	(12-4),
-5.677783	(12.1
-5.933056	(12.7
-5.933056	(1299
-5.933056	(13
-5.234086	(13,
-5.933056	(13-0),
-5.933056	(13-0,
-5.677783	(13-1)
-5.933056	(13-1),
-5.933056	(13-2,
-5.933056	(13-20)
-5.933056	(13-21),
-5.677783	(13-3)
-5.933056	(13-4).
-5.933056	(131
-5.933056	(13th
-5.933056	(13th)
-5.933056	(14,076
-5.933056	(14-1)
-5.933056	(14-1,
-5.933056	(14-15)
-5.933056	(14-16)
-5.933056	(14-18)
-5.933056	(14-19),
-5.933056	(14-2),
-5.933056	(14-21)
-5.933056	(145.4
-5.933056	(149-90-1)
-5.933056	(15
-5.677783	(15-0)
-5.933056	(15-21)
-5.933056	(15.1
-5.933056	(15th
-5.933056	(16
-5.933056	(16-0)
-5.933056	(160
-5.933056	(166
-5.933056	(16th
-5.933056	(17
-5.933056	(1700
-5.933056	(1727-1804):
-5.933056	(173
-5.933056	(1746-1828),
-5.933056	(1749-1803)
-5.933056	(1766-1854),
-5.933056	(18
-5.933056	(18-13)
-5.933056	(1823-1906),
-5.933056	(1864-1933),
-5.933056	(1875)
-5.933056	(1876-1948),
-5.933056	(1879
-5.933056	(1881-1965),
-5.933056	(1884-85).
-5.933056	(19
-5.933056	(19-14),
-5.933056	(19-16-3)
-5.933056	(19-17-4),
-5.933056	(1900-91),
-5.933056	(1906-67),
-5.933056	(1918-86)
-5.933056	(1933).
-5.933056	(1936-39).
-5.933056	(1937).
-5.933056	(1940-1993),
-5.933056	(1945
-5.933056	(1945),
-5.933056	(1946),
-5.933056	(1948)
-5.933056	(1948).
-5.933056	(1950),
-5.677783	(1957),
-5.933056	(1958-81),
-5.933056	(1960)
-5.933056	(1961),
-5.518083	(1966)
-5.933056	(1966-1976).
-5.933056	(1966-76),
-5.933056	(1968-69),
-5.933056	(1969)
-5.933056	(1969),
-5.933056	(1969).
-5.677783	(1970),
-5.677783	(1971),
-5.933056	(1972
-5.933056	(1972),
-5.933056	(1972-76).
-5.933056	(1974)
-5.933056	(1974),
-5.933056	(1975)
-5.933056	(1976).
-5.933056	(1977),
-5.933056	(1979),
-5.933056	(1980);
-5.933056	(1981),
-5.933056	(1981).
-5.933056	(1983).
-5.933056	(1984)
-5.933056	(1985-1986),
-5.933056	(1987
-5.933056	(1988)
-5.933056	(1989).
-5.933056	(1990-95)
-5.677783	(1991)
-5.677783	(1992),
-5.933056	(1992).
-5.933056	(1992-96)
-5.933056	(1993),
-5.518083	(1994),
-5.933056	(1997)
-5.518083	(1997),
-5.933056	(1997-98)
-5.933056	(1999)
-5.933056	(1999),
-5.933056	(1:00)
-5.933056	(1:05).
-5.933056	(1:10).
-5.933056	(1:20).
-5.309807	(1:30).
-5.933056	(1:35).
-5.518083	(1:40).
-5.401577	(1:45).
-5.933056	(1:50).
-5.933056	(1:55).
-5.518083	(2
-5.933056	(20
-5.933056	(20-17-4)
-5.933056	(2000
-5.677783	(2000),
-5.933056	(2001)
-5.933056	(2001),
-5.933056	(2001);
-5.933056	(2002)
-5.933056	(2002),
-5.933056	(2004),
-5.933056	(2005),
-5.518083	(2005).
-5.933056	(2005-6)
-5.933056	(2006),
-4.819113	(201)
-4.508174	(203)
-5.933056	(203)-972-7557.
-5.677783	(21
-5.933056	(21-17-4)
-5.933056	(210
-3.616247	(212)
-5.933056	(212)255-3900.
-5.933056	(212-206-6700;
-5.933056	(212-362-6600),
-5.933056	(212-426-4160
-5.933056	(2160
-5.933056	(22-13-4),
-5.933056	(2277
-5.933056	(23)
-5.933056	(238
-5.933056	(24
-5.933056	(25).
-5.933056	(27.3).
-5.933056	(2750
-5.933056	(281
-5.933056	(29
-4.978813	(2:00).
-5.677783	(2:05).
-5.677783	(2:10).
-5.677783	(2:15).
-5.309807	(2:20).
-5.933056	(2:25).
-5.113512	(2:30).
-5.677783	(2:40).
-5.309807	(2:45).
-5.933056	(2:55).
-5.401577	(3
-5.933056	(3,301).
-5.933056	(3,398)
-5.933056	(3-1)
-5.933056	(3-13)
-5.933056	(3.35
-5.933056	(3.9).
-5.933056	(3.95
-5.933056	(30
-5.933056	(301)
-5.933056	(302)
-5.933056	(303-325-7347;
-5.933056	(303-361),
-5.933056	(310-278-5444;
-5.677783	(32
-5.933056	(33-1)
-5.933056	(34-93)
-5.933056	(35
-5.933056	(35)
-5.933056	(35).
-5.933056	(361
-5.933056	(39),
-5.933056	(3:40).
-5.401577	(4
-5.933056	(4,131
-5.933056	(4,164
-5.933056	(4,278
-5.933056	(4,594
-5.933056	(4-3
-5.933056	(4.8
-5.933056	(40
-5.933056	(404-688-2107;
-5.933056	(406
-5.933056	(41
-5.933056	(415)
-5.933056	(416
-5.933056	(42-inch)
-5.933056	(4200
-5.933056	(421
-5.933056	(427
-5.933056	(44
-5.677783	(44-207)
-5.933056	(468,056
-5.933056	(47),
-5.933056	(480-948-1700;
-5.933056	(48865
-5.677783	(4:30
-5.677783	(4th
-5.309807	(5
-5.933056	(5.2
-5.933056	(50),
-5.933056	(500,000),
-5.933056	(503-621-2233
-4.94183	(516)
-5.933056	(516-764-9400).
-5.933056	(52),
-5.933056	(520)
-5.933056	(54
-5.933056	(54),
-5.933056	(541)
-5.933056	(55
-5.933056	(55000
-5.933056	(560).
-5.933056	(561-832-7428,
-5.933056	(562,498
-5.933056	(58)
-5.933056	(598-2)
-5.063824	(598-42)
-5.933056	(598-99)
-5.933056	(59th
-5.677783	(6
-5.677783	(6-10)
-5.933056	(6-10),
-5.933056	(6-6).
-5.933056	(6.3
-5.933056	(6.7
-5.933056	(6.9
-5.933056	(603)
-4.702607	(609)
-5.933056	(617)
-5.933056	(619)
-5.933056	(619-531-8740;
-5.933056	(62
-4.495306	(631)
-5.933056	(65
-5.933056	(650-480
-5.933056	(683
-5.933056	(68th
-5.933056	(69th
-5.933056	(7,214)
-5.933056	(7,567)
-5.933056	(7-6)
-5.933056	(7-7,
-5.933056	(7.2
-5.933056	(7.4
-5.677783	(70)
-5.933056	(71
-4.508174	(718)
-5.019242	(732)
-5.933056	(75
-5.933056	(760-770-5000;
-5.933056	(770-939-8646;
-5.933056	(78
-5.933056	(781)
-5.933056	(79
-5.933056	(8-4)
-5.234086	(8-8)
-5.933056	(8-8).
-5.933056	(8-9)
-5.933056	(8.1
-5.933056	(8.5
-4.663543	(800)
-5.933056	(800-756-8077
-5.933056	(802)
-5.933056	(803-648-7522
-5.933056	(82
-5.933056	(830)
-5.933056	(831)
-5.677783	(831-667-2315;
-5.933056	(831-667-2345;
-5.933056	(831-667-2800;
-5.019242	(845)
-5.518083	(85
-5.518083	(850)
-5.933056	(856)
-4.470658	(860)
-5.933056	(866-397-6520,
-5.677783	(877)
-5.933056	(881).
-5.518083	(888)
-5.677783	(9
-5.677783	(9-3)
-5.518083	(9-4)
-5.933056	(9-4).
-5.933056	(9-4,
-5.933056	(9-6).
-5.169628	(9-7)
-5.933056	(9-8)
-5.933056	(9.1
-5.933056	(9.3
-5.933056	(9.5
-5.933056	(9.7
-5.933056	(90
-4.94183	(908)
-4.303646	(914)
-5.933056	(914793-3800).
-5.677783	(917)
-5.933056	(920
-5.933056	(93rd
-5.933056	(949)
-5.933056	(95.1)
-5.933056	(970-731-1160;
-5.933056	(970-925-6760;
-4.578948	(973)
-5.933056	(99.0
-4.94183	(A
-5.677783	(A&E)
-5.933056	(A.
-5.677783	(ABC
-5.169628	(ABC)
-5.933056	(ABC,
-4.846696	(AP)
-5.933056	(ATS)
-5.933056	(Abigail
-5.933056	(Actually,
-5.933056	(Adam
-5.933056	(Adu
-5.933056	(Aerial
-5.933056	(Afro,
-5.933056	(Akashic,
-5.933056	(Al).
-5.933056	(Alex
-5.933056	(Alison)
-5.518083	(All
-5.933056	(Allan
-5.933056	(Along
-5.933056	(Also,
-5.933056	(Although
-5.169628	(Amanda)
-5.933056	(Amani
-5.933056	(American
-5.933056	(Amistad/HarperCollins,
-5.933056	(Among
-5.677783	(An
-5.933056	(Ana),
-5.933056	(Anchor,
-5.234086	(And
-5.933056	(And,
-5.933056	(Andre),
-5.677783	(Andrew
-5.933056	(Andy
-5.677783	(Anita
-5.933056	(Anna),
-5.933056	(Anne
-5.933056	(Another
-5.933056	(Anthony
-5.933056	(Apologies
-5.933056	(Appeals
-5.677783	(April
-5.933056	(Arnulf-Klett-Platz
-5.933056	(ArtistShare),
-5.518083	(As
-5.401577	(At
-5.933056	(Atlanta
-5.933056	(Aug.
-5.933056	(B.I.G.F.A.C.E.)
-5.677783	(Ba
-5.677783	(Back
-5.677783	(Ballantine,
-5.401577	(Bantam,
-5.933056	(Barbara
-5.933056	(Bass
-5.933056	(Beacon,
-5.933056	(Beatrice
-5.933056	(Beatrix
-5.933056	(Beau
-5.933056	(Beaver
-5.933056	(Because
-5.933056	(Before
-5.933056	(Begum
-5.933056	(Beijing,
-5.677783	(Ben
-5.933056	(Ben).
-5.933056	(Bennett
-5.933056	(Berklee).
-5.933056	(Berkley,
-5.933056	(Bernard
-5.169628	(Beth
-5.933056	(Beulah)
-5.933056	(Big
-5.933056	(Bill
-5.933056	(Black
-5.933056	(Bling
-5.933056	(Bloomberg
-5.933056	(Bloomsbury).
-5.933056	(Blu-ray
-5.933056	(Book
-5.933056	(Borges
-5.518083	(Both
-4.549241	(Brantley)
-5.933056	(Bravo)
-5.933056	(Brent
-5.677783	(Brett),
-5.677783	(Brian
-5.933056	(Brigham
-5.933056	(Brittany
-5.401577	(Broadway,
-5.933056	(Brunton
-5.933056	(Bucatini
-5.933056	(Bull)
-5.933056	(Burton,
-5.677783	(But
-5.933056	(By
-5.677783	(C-Span);
-5.933056	(CCFA)
-5.933056	(Cadavre
-5.933056	(California's
-5.933056	(Calvetty
-5.933056	(Cambridge
-5.933056	(Caplan),
-5.933056	(Capt.)
-5.933056	(Carice
-5.677783	(Carmen,
-5.933056	(Carol)
-5.933056	(Casino
-5.933056	(Cate
-5.401577	(Catsoulis)
-5.933056	(Chad);
-5.933056	(Charles
-5.933056	(Checks
-5.933056	(Chesterfield
-5.933056	(Chevrolet
-5.933056	(Chiara
-5.933056	(Chicago,
-4.56384	(Chinen)
-5.933056	(Christianity);
-5.933056	(Christie
-5.933056	(Church
-5.401577	(Clarkson
-5.933056	(Claudia
-5.933056	(Clive
-5.933056	(Columbia)
-5.933056	(Commendably,
-5.933056	(Concool),
-5.933056	(Consider
