
\data\
ngram 1=131266
ngram 2=753023

\1-grams:
-6.011328	".	0.01664987
-6.266601	"14	-1.63074e-05
-6.266601	"1982	-7.092853e-06
-6.266601	"1992	-7.092853e-06
-6.266601	"2002	-7.092853e-06
-6.266601	"Affluent"	0.0001330301
-6.266601	"African	-1.611935e-05
-6.266601	"Aged	0.01175018
-6.266601	"Arbeitsgemeinschaft	-1.611935e-05
-6.266601	"At	0.001265451
-6.266601	"BMI"	0.005493767
-6.266601	"Beta2-adrenoceptor	-1.63074e-05
-6.266601	"Big	-1.63074e-05
-6.266601	"Borderline"	0.001953465
-6.266601	"Bother"	0.004103225
-6.266601	"Classical"	0.0003742602
-6.266601	"Complete"	-1.160613e-05
-6.266601	"Cura	-1.63074e-05
-6.266601	"Cushingoid"	0.000321562
-6.266601	"Daruma"	0.0006640267
-6.266601	"Developmental	-1.611935e-05
-6.266601	"Diet	-1.63074e-05
-6.266601	"Do	-1.423885e-05
-5.643352	"ER+	3.062702e-05
-5.735122	"ER-/PR-,	-6.17777e-05
-6.266601	"El	-1.63074e-05
-6.266601	"Elaboration	0.01599453
-6.266601	"Energy	-1.63074e-05
-6.266601	"Enrique	-1.63074e-05
-6.266601	"Exercisers"	9.409209e-05
-6.266601	"Family	-1.574325e-05
-6.266601	"Fertility	-1.63074e-05
-6.266601	"Fleurbaix	-1.55552e-05
-6.266601	"Frank	-1.59313e-05
-6.266601	"GFI".	0.01666311
-6.266601	"GHRAS"	0.000994321
-6.266601	"GSO"	-1.611935e-05
-6.266601	"Has	-1.499105e-05
-6.266601	"Have	-1.423885e-05
-6.266601	"Healthy"	0.001908319
-6.266601	"Heterosexual	-8.973389e-06
-6.266601	"I	-1.63074e-05
-6.266601	"IDA"	-1.4803e-05
-6.011328	"Interdisciplinary	0.0001004211
-6.266601	"It	0.002604163
-6.266601	"Jolly	-1.63074e-05
-6.266601	"Let's	-1.63074e-05
-6.266601	"Lie	-1.63074e-05
-6.266601	"Lipid"	0.002604163
-6.266601	"Lozano	-1.63074e-05
-6.011328	"Mediterranean	-3.242641e-05
-6.266601	"National	-1.348664e-05
-6.266601	"Non-Exercisers"	9.409209e-05
-6.266601	"Normal"	5.647408e-05
-6.266601	"Nutrition	0.001766678
-6.266601	"OKkio	-1.611935e-05
-6.011328	"Obesity"	0.002642537
-6.266601	"Pabianice--A	-2.203406e-06
-6.266601	"Passport	0.007260744
-6.266601	"Perfect	-1.63074e-05
-6.266601	"Policlinico	-1.63074e-05
-6.266601	"Primorsko-Goranska"	-1.273444e-05
-6.266601	"Reward	-1.59313e-05
-6.266601	"SFO"	-1.611935e-05
-6.266601	"Schlank	-1.63074e-05
-6.266601	"Selfish	-1.63074e-05
-6.266601	"Sfânta	-1.63074e-05
-6.266601	"Sham".	0.01666311
-6.266601	"Sickledex"	5.50697e-06
-6.266601	"Significant	2.638206e-05
-6.266601	"Slim	0.0002314253
-6.266601	"Smile	-1.63074e-05
-6.266601	"St.	-1.63074e-05
-6.266601	"Statistica"	3.033153e-05
-6.266601	"Stufenplan"	0.002604163
-6.266601	"Substantiation	0.01599453
-5.735122	"The	0.0004488305
-6.266601	"There	0.002604163
-6.266601	"Things	-1.123002e-05
-6.266601	"This	0.0001303965
-6.266601	"Thrifty"	3.917092e-05
-6.266601	"U"-shaped	-2.203406e-06
-6.266601	"VMH-specific"	-8.22117e-06
-6.266601	"Venuses".	0.01666311
-6.266601	"Westernized".	0.01666311
-6.011328	"What	0.00270536
-6.266601	"Who's	0.001953465
-6.266601	"Year	7.1995e-06
-6.266601	"Zhabei	0.0001144071
-5.851627	"a	0.0001485767
-6.011328	"abdominal	-3.148615e-05
-6.266601	"abnormality"	0.000761035
-6.266601	"absolute"	0.017393
-6.266601	"accelerator	-1.63074e-05
